{"version":"0.5.4","metadata":{"date":{"year":2026,"month":3,"day":2,"hour":19,"minute":47,"second":55},"loudness":-22.337514877319336,"gain":0.7428755299932412,"name":"MRSH SA100 I Edge BAL CAB","modeled_by":"amalgamaudio","gear_type":"amp_cab","gear_make":"tz-make","gear_model":"tz-model","tone_type":"overdrive","input_level_dbu":15,"output_level_dbu":14,"training":{"settings":{"ignore_checks":false},"data":{"latency":{"manual":null,"calibration":{"algorithm_version":1,"delays":[4636],"safety_factor":1,"recommended":4635,"warnings":{"matches_lookahead":false,"disagreement_too_high":false}}},"checks":{"version":3,"passed":true}},"validation_esr":0.0032361650361273104}},"architecture":"WaveNet","config":{"layers":[{"input_size":1,"condition_size":1,"head_size":8,"channels":16,"kernel_size":3,"dilations":[1,2,4,8,16,32,64,128,256,512],"activation":"Tanh","gated":false,"head_bias":false},{"input_size":16,"condition_size":1,"head_size":1,"channels":8,"kernel_size":3,"dilations":[1,2,4,8,16,32,64,128,256,512],"activation":"Tanh","gated":false,"head_bias":true}],"head":null,"head_scale":0.02},"weights":[-0.2571388781070709,0.8835801482200623,-0.9694111347198486,-0.9476754069328308,-0.7115586400032043,0.3444995582103729,-0.3892984390258789,0.8909313082695007,-0.21990807354450226,0.4007718563079834,-0.4160860776901245,-0.3388524353504181,-1.1662503480911255,-0.8133863210678101,-0.613747775554657,0.22629296779632568,0.06979387253522873,0.02066255360841751,-0.1360539048910141,-0.10310415923595428,0.12673567235469818,0.0870109423995018,0.012498559430241585,0.03931022807955742,0.012993636541068554,0.0567057803273201,0.06439130008220673,-0.09876494109630585,-0.04865862429141998,-0.11584746837615967,-0.02755001187324524,0.08863680064678192,-0.03419635817408562,-0.0910288393497467,-0.06967367976903915,-0.17003928124904633,-0.13201278448104858,0.08268129080533981,0.13002265989780426,0.034199804067611694,0.03817320615053177,-0.14405645430088043,0.023794446140527725,-0.17048634588718414,-0.03490941971540451,-0.09842601418495178,0.12592501938343048,0.017543721944093704,-0.037193357944488525,0.030701030045747757,0.03324586898088455,0.16714394092559814,0.0985247939825058,-0.04855947196483612,0.1337408572435379,-0.04380875453352928,-0.04042927175760269,-0.0762244462966919,-0.0602390393614769,-0.1467622071504593,0.10014595091342926,0.043135982006788254,0.015945151448249817,0.06185314804315567,0.14470617473125458,0.04443753510713577,-0.19626490771770477,-0.04572461545467377,0.04694566875696182,0.31550928950309753,-0.029813647270202637,-0.008900810033082962,-0.11417520046234131,0.2014949917793274,0.16896739602088928,-0.041997332125902176,0.1079886332154274,-0.07456295937299728,-0.16526192426681519,-0.16864390671253204,-0.18484577536582947,0.29187607765197754,0.1938137263059616,-0.03220423683524132,-0.18048812448978424,-0.10659047216176987,-0.0664835125207901,0.10202721506357193,0.13438934087753296,-0.023909391835331917,-0.11151902377605438,-0.00912911631166935,0.05438336357474327,0.22118231654167175,-0.06292156130075455,-0.04675731435418129,-0.09471206367015839,0.10682760179042816,-0.06485779583454132,-0.25192296504974365,0.21815873682498932,0.13906823098659515,-0.23418278992176056,0.045666687190532684,-0.09481002390384674,-0.17183127999305725,-0.03010997548699379,-0.06997662037611008,-0.1831597536802292,-0.03640666604042053,-0.11160247772932053,0.30312442779541016,-0.07335498183965683,-0.3840857744216919,0.052284494042396545,-0.10695752501487732,0.4613327980041504,0.0979168489575386,0.004856037441641092,-0.45604515075683594,-0.03404682129621506,-0.007055693306028843,-0.5592458248138428,-0.021758222952485085,-0.15386216342449188,-0.5909751653671265,-0.12666530907154083,-0.06888535618782043,0.4221374988555908,-0.04570082575082779,-0.05374946817755699,-0.5514683723449707,-0.14343687891960144,0.007601914461702108,0.5890378355979919,0.07392074167728424,0.008988052606582642,-0.491513729095459,-0.03025876358151436,0.096181720495224,0.6168452501296997,0.16854816675186157,0.13233105838298798,-0.4880940318107605,-0.2073945701122284,-0.06665248423814774,-0.3751288950443268,-0.07124492526054382,-0.0879831612110138,-0.6007966995239258,-0.22644247114658356,-0.13649846613407135,-0.5166980028152466,-0.01007086131721735,0.06774390488862991,-0.6277857422828674,0.004193160217255354,-0.14282181859016418,0.472006231546402,-0.016678746789693832,0.15445370972156525,0.26490816473960876,-0.1854923665523529,-0.2971954047679901,-0.3149650990962982,0.02760530263185501,0.10449961572885513,0.34600314497947693,-0.15771056711673737,0.16011209785938263,0.41859421133995056,-0.08567792177200317,0.30443161725997925,0.3455262780189514,-0.16158166527748108,-0.06685498356819153,-0.29824548959732056,-0.02293180115520954,0.32506608963012695,0.22291480004787445,-0.06189441308379173,-0.19871428608894348,-0.18727590143680573,0.06686658412218094,0.2352282851934433,0.3289529085159302,-0.08037476241588593,-0.19431959092617035,-0.40216365456581116,0.11236492544412613,0.2763579785823822,0.38159701228141785,-0.13576480746269226,0.16035732626914978,0.17580223083496094,-0.12446124106645584,0.08694508671760559,0.3422323167324066,-0.11042062938213348,0.16588911414146423,0.2962207496166229,0.06717213243246078,0.056736286729574203,0.18574823439121246,-0.1140967383980751,-0.045105792582035065,-0.3124582767486572,0.20191870629787445,0.04391828924417496,-0.019255705177783966,-0.1643345206975937,-0.05694935843348503,0.03738006204366684,0.08156731724739075,0.032221484929323196,0.0028992420993745327,-0.22662051022052765,-0.04222989082336426,0.09980521351099014,-0.22971485555171967,0.016101587563753128,0.12613984942436218,-0.06832270324230194,-0.021529272198677063,-0.1101459488272667,0.19291828572750092,-0.08564824610948563,-0.03789284825325012,-0.22219619154930115,-0.05421220883727074,0.018675891682505608,0.23114033043384552,0.031352560967206955,0.10598854720592499,-0.04647684842348099,-0.11531888693571091,0.0861426591873169,0.018305597826838493,-0.035946253687143326,0.023331742733716965,-0.07005289196968079,0.13015028834342957,-0.06581920385360718,-0.12419115006923676,0.10756141692399979,-0.15664775669574738,-0.0067445021122694016,-0.08707237243652344,-0.01573667861521244,-0.1371729075908661,-0.049402784556150436,-0.001971255987882614,0.0034576794132590294,-0.018356986343860626,-0.034666117280721664,0.11119765043258667,-0.02519777975976467,-0.25202253460884094,-0.3044441342353821,-0.1771651655435562,0.21262496709823608,0.3496800363063812,0.15311069786548615,-0.1817489117383957,-0.2107776701450348,0.028001990169286728,-0.33249831199645996,-0.21976161003112793,0.20210927724838257,-0.2622005343437195,-0.3368675112724304,-0.15496183931827545,0.14425252377986908,0.27388978004455566,0.001707821385934949,-0.5253162384033203,-0.11712199449539185,-0.16981558501720428,0.2736949324607849,0.30131953954696655,0.10183736681938171,-0.38242554664611816,-0.3531309962272644,0.02794843353331089,0.30789539217948914,0.36952826380729675,0.03656527027487755,-0.24037989974021912,-0.282488077878952,0.08537618815898895,-0.3677007257938385,-0.1919543743133545,0.12162139266729355,-0.29552406072616577,-0.2963077127933502,-0.01175684668123722,-0.19079573452472687,-0.3688778281211853,0.14293459057807922,-0.3368617594242096,-0.3293112814426422,-0.11298021674156189,0.21905037760734558,0.25870078802108765,-0.40967243909835815,-0.49732527136802673,0.19093327224254608,0.5095180869102478,0.43415239453315735,-0.12141747772693634,-0.5605884790420532,-0.3941608965396881,0.14996878802776337,-0.49367767572402954,-0.31532588601112366,0.19615867733955383,-0.5280974507331848,-0.3839195668697357,0.16670162975788116,0.43014398217201233,0.36601522564888,-0.09784401208162308,-0.5866550803184509,-0.44933560490608215,0.2634128928184509,0.5679134726524353,0.452540785074234,-0.08053477108478546,-0.35284414887428284,-0.4297543168067932,0.016038265079259872,0.3051394522190094,0.5050682425498962,-0.022676603868603706,-0.5272186398506165,-0.30228671431541443,0.22085915505886078,-0.2741625905036926,-0.22772017121315002,0.23124746978282928,-0.47609585523605347,-0.4221542179584503,0.21738208830356598,-0.35905593633651733,-0.45575740933418274,0.23038369417190552,-0.36976680159568787,-0.2896523177623749,0.015754511579871178,0.46914154291152954,0.32505321502685547,-0.05958782881498337,-0.4501662850379944,0.0009928521467372775,0.25005388259887695,0.4954759478569031,-0.0005489560426212847,-0.10809843987226486,-0.5297581553459167,-0.015926575288176537,0.07783696055412292,-0.5724107623100281,-0.16601239144802094,0.28770262002944946,-0.35603079199790955,0.08815441280603409,0.3006519377231598,0.28236013650894165,-0.05348321795463562,-0.20818980038166046,-0.5577178597450256,-0.017797358334064484,0.11312934011220932,0.3567556142807007,-0.0890553668141365,-0.25468626618385315,-0.2928696572780609,0.07329501956701279,0.29757368564605713,0.5293583869934082,0.17284873127937317,-0.21988803148269653,-0.353624552488327,0.0833062082529068,0.22826778888702393,-0.26310262084007263,0.03361506387591362,0.279867023229599,-0.4818456470966339,0.018798502162098885,0.18952549993991852,-0.46255651116371155,-0.13037008047103882,0.0926881730556488,-0.5362433195114136,0.054143987596035004,0.28418126702308655,0.3812110722064972,-0.0614360049366951,-0.13717538118362427,0.11026085913181305,-0.054574329406023026,0.16533897817134857,0.13736380636692047,0.1279037743806839,-0.2737990915775299,0.1305072158575058,0.039105065166950226,0.10546304285526276,0.07293513417243958,-0.15323737263679504,0.1353675127029419,0.11965344846248627,-0.06362301111221313,0.06755296885967255,-0.046967003494501114,0.029937472194433212,-0.19356107711791992,0.002939104801043868,0.015534305945038795,0.25433123111724854,-0.08110133558511734,0.07831753045320511,-0.08734273910522461,0.0773724913597107,-0.19801604747772217,0.1600736379623413,-0.10570516437292099,0.005056262016296387,-0.11601044237613678,-0.10552483797073364,-0.015071711502969265,0.28631123900413513,0.011434759013354778,-0.16242212057113647,0.11980198323726654,0.02314739301800728,-0.18104197084903717,0.22902202606201172,-0.13842424750328064,-0.20883910357952118,0.018173430114984512,-0.032306596636772156,0.03025827743113041,0.028003772720694542,0.08560514450073242,-0.014600944705307484,-0.1972544938325882,0.011777613312005997,-0.3536461293697357,0.24875976145267487,0.10054045170545578,0.35322150588035583,0.009602302685379982,-0.12138254940509796,-0.08960860222578049,0.06403499096632004,0.04171065241098404,-0.327141672372818,0.013913371600210667,-0.16539868712425232,-0.2688160836696625,0.09883962571620941,-0.08840031176805496,0.25759464502334595,0.018662137910723686,0.006291374564170837,-0.37489357590675354,0.03320057690143585,-0.017894115298986435,0.2733237147331238,0.08771226555109024,0.06506697833538055,-0.22557274997234344,0.1338643729686737,-0.11834274977445602,0.08557705581188202,0.004879932384938002,-0.10506219416856766,-0.13857874274253845,-0.041671816259622574,-0.09426262229681015,-0.3302147090435028,0.13743484020233154,-0.04100721329450607,-0.09963349252939224,0.14465852081775665,0.05371671915054321,-0.20536407828330994,0.01151762530207634,-0.056048158556222916,-0.18940125405788422,0.13134141266345978,-0.11191551387310028,0.3246746063232422,-0.13731127977371216,-0.3589887320995331,0.002584807574748993,0.4511919319629669,0.3801577687263489,-0.21243229508399963,-0.20418119430541992,-0.1742229014635086,0.15779301524162292,0.42556047439575195,-0.32308387756347656,0.117673359811306,0.3635716438293457,-0.29517778754234314,0.12720328569412231,0.26429522037506104,0.3283939063549042,-0.09728822112083435,-0.3512662947177887,-0.2181134670972824,0.11345457285642624,0.2741472125053406,0.2554565668106079,0.011260513216257095,-0.3190070688724518,-0.1973026990890503,0.03116600215435028,0.35366904735565186,0.13663063943386078,-0.15407808125019073,-0.37532496452331543,-0.10571406781673431,0.031159574165940285,0.3019011914730072,-0.3100123703479767,0.19897541403770447,0.43588095903396606,-0.35379892587661743,-0.04206661880016327,0.19607312977313995,-0.24540698528289795,0.03613300621509552,0.20896349847316742,-0.29691454768180847,0.10385604947805405,0.22679544985294342,0.2674623131752014,-0.11128179728984833,-0.36930495500564575,0.195229172706604,0.20856177806854248,0.04705975949764252,-0.1664382368326187,-0.10832938551902771,0.05112200975418091,0.035842183977365494,-0.0810890719294548,0.23502524197101593,0.07886311411857605,0.08491620421409607,0.08193159103393555,0.14811117947101593,0.023730939254164696,0.1832924783229828,-0.16687044501304626,-0.20177119970321655,-0.18812280893325806,0.11119762063026428,0.16044914722442627,0.06771527975797653,-0.034696463495492935,-0.08976438641548157,-0.11965238302946091,0.2986993193626404,0.1441662460565567,0.24425193667411804,-0.09133754670619965,-0.1086643785238266,-0.19821041822433472,0.16577404737472534,0.18042877316474915,0.05239888280630112,0.035989340394735336,0.12127417325973511,0.24217163026332855,0.12974505126476288,-0.06263531744480133,-0.03858886659145355,0.2062901258468628,0.04630320519208908,0.020475847646594048,0.20245152711868286,0.10998763889074326,0.205864816904068,-0.06847477704286575,-0.10338374972343445,-0.23492486774921417,0.21149124205112457,0.10129507631063461,0.2254081666469574,-0.23727993667125702,-0.09124089032411575,0.02042718231678009,0.428154319524765,0.09633464366197586,-0.012294662185013294,0.23723573982715607,-0.13093063235282898,0.24666328728199005,0.24240165948867798,-0.10673824697732925,0.1912933737039566,-0.3536173403263092,-0.03816603869199753,-0.1265212744474411,0.3394886255264282,-0.17782564461231232,0.2884000837802887,-0.35242602229118347,0.0819602906703949,0.016643093898892403,0.37182292342185974,-0.017256656661629677,0.24933883547782898,-0.2721116542816162,-0.03627301752567291,0.021826427429914474,0.32285282015800476,-0.17214259505271912,0.07126889377832413,0.19088132679462433,0.0974155142903328,0.09345974773168564,0.16012980043888092,-0.04054160416126251,0.19937686622142792,0.3283790647983551,0.014533738605678082,0.1235024631023407,0.348646879196167,-0.06790816783905029,0.05315224826335907,-0.46641790866851807,-0.0796123594045639,-0.08934450894594193,-0.15098178386688232,0.36423322558403015,-0.05163450539112091,0.03965608403086662,-0.4405134618282318,0.173241525888443,-0.10686767846345901,0.46489518880844116,-0.14623340964317322,-0.05621194839477539,0.42443108558654785,-0.08998565375804901,0.08553750067949295,0.2516021728515625,-0.16140493750572205,-0.03626758232712746,-0.3110799491405487,0.17599458992481232,-0.10548713803291321,0.4560547471046448,-0.13597838580608368,-0.01063540019094944,-0.2381310760974884,-0.0818517729640007,-0.026250259950757027,0.47066277265548706,-0.07625267654657364,0.14140576124191284,-0.38120266795158386,0.15869268774986267,-0.16685490310192108,0.3170107901096344,-0.06374432891607285,0.0131274638697505,0.38657495379447937,0.05954461544752121,-0.04272434487938881,0.3408278524875641,0.06903201341629028,-0.06123191863298416,0.4706592857837677,-0.12749317288398743,-0.04616023227572441,0.3328782916069031,0.026571182534098625,0.18188446760177612,-0.34289970993995667,-0.0059238639660179615,0.05213174223899841,-0.2585045099258423,0.3044287860393524,-0.03933260217308998,0.40483394265174866,-0.07024729251861572,-0.04318898916244507,-0.44793304800987244,0.30206289887428284,-0.16334004700183868,-0.2789347469806671,0.22195354104042053,-0.10962574183940887,-0.2608809173107147,0.08350323885679245,0.08220329135656357,0.2059284746646881,-0.21473123133182526,-0.0019823345355689526,-0.20490074157714844,0.20179510116577148,0.15040323138237,0.29316356778144836,-0.2658393979072571,-0.15808114409446716,-0.4204145073890686,0.34593528509140015,0.013067051768302917,0.3087742328643799,-0.16112671792507172,0.04681244492530823,-0.17946769297122955,0.31409838795661926,-0.15306711196899414,-0.3169102668762207,0.11898418515920639,-0.1400373876094818,-0.2800827622413635,0.3357889950275421,-0.17147837579250336,-0.22318369150161743,0.12469979375600815,-0.07742089778184891,-0.19157178699970245,0.17146509885787964,0.012530132196843624,0.17538565397262573,-0.13940437138080597,-0.04150549694895744,-0.32338953018188477,0.04016854986548424,-0.09309350699186325,0.06346806138753891,0.028377708047628403,0.10270347446203232,-0.2200641930103302,0.04253185912966728,0.11305686086416245,-0.08493876457214355,-0.10134551674127579,-0.02885347232222557,-0.22609283030033112,-0.1349858194589615,0.019925782456994057,0.2985764443874359,0.15007495880126953,-0.019249215722084045,-0.2096198946237564,-0.06291255354881287,0.1213262677192688,0.1198696568608284,-0.07298015058040619,-0.012920575216412544,-0.11897314339876175,-0.1640578955411911,0.1514914631843567,0.2420101761817932,-0.06962241232395172,-0.052051495760679245,-0.06264033913612366,-0.14305563271045685,-0.060070931911468506,-0.14232787489891052,-0.15136553347110748,0.0680432915687561,-0.10424008965492249,0.06326483190059662,-0.10386189073324203,-0.0364990271627903,-0.11206021904945374,0.13165104389190674,-0.31681734323501587,-0.15332399308681488,0.11569296568632126,0.21521501243114471,0.003784405067563057,-0.06632987409830093,-0.0804777592420578,-0.13395848870277405,-0.29904401302337646,0.0042942906729876995,0.06380897760391235,-0.07381798326969147,0.022743891924619675,0.04824431240558624,0.10833397507667542,-0.06718325614929199,0.05094853788614273,-0.008656235411763191,-0.026543663814663887,-0.017413485795259476,-0.13704892992973328,0.4035440981388092,-0.26151397824287415,0.8936946392059326,-0.6802526116371155,0.10898152738809586,1.1654781103134155,0.9036216735839844,-0.7444397807121277,0.02914782427251339,0.06814776360988617,-0.7717527747154236,-0.434378057718277,0.16638951003551483,-0.6722071170806885,-0.028951194137334824,0.457051545381546,-0.1401645690202713,0.17311227321624756,0.1166384369134903,0.13718988001346588,0.13318578898906708,-0.12140872329473495,0.2019418627023697,-0.11257971823215485,-0.03704458475112915,-0.012809802778065205,0.12189659476280212,-0.044214487075805664,0.21079835295677185,0.08637823164463043,0.040446601808071136,-0.09613820165395737,-0.0981205627322197,-0.2332034707069397,-0.21124164760112762,-0.006167213432490826,-0.2533052861690521,0.05583740398287773,-0.2625123858451843,0.030664868652820587,0.2738373875617981,0.396734356880188,-0.234811469912529,-0.11110884696245193,0.30063286423683167,-0.30259427428245544,0.1967281997203827,0.2805115580558777,0.2029283195734024,0.14809821546077728,0.09116047620773315,0.2823597192764282,-0.02195964939892292,-0.13365820050239563,0.08611054718494415,-0.12502199411392212,-0.02029816247522831,-0.10727924853563309,0.20113344490528107,-0.3611232042312622,0.09611792117357254,0.22206328809261322,-0.0323149748146534,0.1768188327550888,0.34923258423805237,-0.13386321067810059,-0.09321317076683044,-0.08399605005979538,0.3388083577156067,0.05612139776349068,-0.08331546187400818,0.0037930889520794153,-0.285422682762146,-0.03642683103680611,-0.09098587930202484,-0.19582268595695496,0.03179679065942764,0.2387351244688034,-0.29443296790122986,0.14718452095985413,-0.18406058847904205,-0.21042591333389282,-0.1587711125612259,0.11719422787427902,0.10922560095787048,0.06832330673933029,0.08721991628408432,-0.06398916244506836,0.06322576105594635,0.27308622002601624,0.08694963157176971,0.29527023434638977,-0.007488213013857603,0.14982923865318298,-0.017062436789274216,-0.003980304580181837,-0.26077669858932495,-0.09631456434726715,0.15644221007823944,0.10569047182798386,0.2361445277929306,0.2432929128408432,0.24836240708827972,0.09153176099061966,0.09835267066955566,-0.04408096522092819,-0.04826834052801132,-0.005649641156196594,-0.1679963320493698,-0.11592666804790497,-0.08071024715900421,0.033351831138134,0.31792715191841125,-0.010510540567338467,0.29992103576660156,0.4140598177909851,-0.2198498696088791,-0.10647391527891159,0.038245394825935364,-0.19831785559654236,0.11182549595832825,-0.23866882920265198,-0.27314293384552,0.13160859048366547,0.19213658571243286,-0.1540507823228836,0.28627240657806396,-0.13586625456809998,0.16297031939029694,0.010475692339241505,0.259200781583786,-0.15740999579429626,-0.2450440675020218,0.2046758383512497,0.25958675146102905,0.09896446019411087,0.08790308237075806,-0.28840136528015137,0.11414533853530884,-0.09489955753087997,0.04156551510095596,-0.11568836867809296,0.07052232325077057,-0.03760422766208649,-0.06913859397172928,0.04936373233795166,-0.3222602307796478,-0.19368872046470642,0.10415159910917282,-0.11440664529800415,-0.2722422182559967,-0.06651768833398819,-0.17605218291282654,-0.2416669726371765,0.06350241601467133,0.0501582957804203,0.0125082116574049,-0.1129058375954628,-0.1409274786710739,0.06215190142393112,-0.1889326423406601,0.17292970418930054,0.20409399271011353,-0.20021426677703857,-0.12202408909797668,-0.05090910196304321,0.2252751886844635,-0.25136226415634155,-0.12605725228786469,0.06053726002573967,0.1986347734928131,0.24870170652866364,0.11797477304935455,0.2724073827266693,-0.19406859576702118,-0.15590497851371765,0.20079824328422546,0.1892426460981369,-0.3267611861228943,0.1004955843091011,0.08042318373918533,-0.14739763736724854,-0.04538166522979736,-0.03973532095551491,0.12573403120040894,-0.13309316337108612,-0.1555185317993164,-0.14962239563465118,-0.2600526213645935,0.11049880087375641,-0.1067303791642189,0.2708084285259247,0.01874295063316822,-0.173560231924057,-0.048480015248060226,0.06879256665706635,0.2265472412109375,0.039487216621637344,-0.03731704503297806,0.23520779609680176,-0.02285687066614628,-0.23462620377540588,0.4151955842971802,-0.4628433883190155,-0.5092459917068481,0.4004782736301422,-0.43803420662879944,0.022799178957939148,-0.0237883273512125,0.111790731549263,-0.09865677356719971,0.018910737708210945,0.1783696711063385,-0.44876930117607117,0.17491108179092407,0.5259419083595276,0.09610743075609207,0.11809014528989792,0.06023422256112099,0.03981122374534607,0.4291621744632721,-0.42003121972084045,0.07976813614368439,0.22226554155349731,0.016956737264990807,-0.1199415773153305,0.09411559998989105,0.09957029670476913,-0.003508920781314373,0.13727271556854248,0.37026315927505493,0.025944164022803307,-0.09846895188093185,-0.06539847701787949,0.11667470633983612,-0.043873999267816544,-0.08711809664964676,-0.02990734949707985,-0.23439660668373108,0.2499115914106369,0.009489412419497967,0.21344168484210968,-0.0014869552105665207,-0.12642522156238556,0.1977551430463791,0.05573258176445961,-0.10007292032241821,0.002136477269232273,-0.21903853118419647,0.06571917980909348,0.1889323741197586,-0.2376004159450531,0.09762005507946014,0.1952914297580719,-0.3025258481502533,0.0481535941362381,0.12183576822280884,0.08278637379407883,0.29953423142433167,-0.05601413920521736,-0.14261877536773682,0.3673439919948578,0.12136019021272659,0.15891669690608978,-0.14399316906929016,-0.17047779262065887,-0.25456592440605164,-0.23277001082897186,0.09547109156847,0.14421549439430237,0.00006058261715224944,-0.024847999215126038,0.08577457070350647,-0.10842745751142502,0.18944671750068665,-0.21494916081428528,-0.04469285532832146,0.036450255662202835,0.1233791932463646,-0.017423829063773155,-0.03185694292187691,-0.19863803684711456,0.1012449860572815,0.05128401890397072,0.06380611658096313,0.1344875544309616,0.156171977519989,-0.09412921965122223,0.002762705786153674,-0.2811613082885742,0.2576499879360199,-0.30632996559143066,-0.1366456151008606,-0.08522479236125946,-0.18416622281074524,-0.16411352157592773,0.328129380941391,-0.12044277787208557,0.02761894091963768,0.044148605316877365,-0.03659466281533241,-0.14336544275283813,0.31253957748413086,0.340453177690506,0.08953773975372314,-0.314178466796875,-0.23737692832946777,-0.11612073332071304,0.1343585103750229,0.17040380835533142,0.061852116137742996,-0.5375331044197083,-0.24617773294448853,-0.06471001356840134,0.2729540765285492,-0.04520559683442116,0.09124366194009781,-0.2212567925453186,-0.2674359083175659,-0.13996373116970062,0.42181622982025146,0.06020992621779442,-0.07666906714439392,0.6982016563415527,0.007012660149484873,-0.6963774561882019,0.8206045031547546,-0.0709557980298996,0.08135806024074554,-0.24944986402988434,-0.10949904471635818,0.02703997679054737,0.3485839068889618,0.25751346349716187,0.04871319234371185,-0.5047686100006104,0.29543638229370117,0.4473623037338257,0.48377811908721924,-0.46078255772590637,-0.6446484923362732,-0.24504220485687256,0.1606721580028534,0.32777273654937744,0.36718636751174927,-0.2511797547340393,-0.04454617574810982,-0.09287628531455994,0.17405347526073456,-0.19203679263591766,-0.14336208999156952,-0.17797966301441193,-0.16802912950515747,0.023124665021896362,0.5123632550239563,0.34196826815605164,0.2166651338338852,0.009080450981855392,-0.08436895906925201,0.0756087452173233,-0.14440743625164032,-0.03911418467760086,-0.11079220473766327,-0.042027898132801056,0.046367742121219635,-0.12134960293769836,-0.029472732916474342,0.03239211067557335,0.04335183650255203,-0.23887839913368225,0.1992681324481964,0.04583160579204559,0.24803343415260315,0.12055619806051254,-0.3120863139629364,0.07699533551931381,0.18337342143058777,0.2514929175376892,0.09837602823972702,0.10694947093725204,0.10451237112283707,-0.17987173795700073,0.056924860924482346,0.02510804869234562,-0.22315455973148346,-0.09152565151453018,-0.04906598478555679,0.43586602807044983,0.17989994585514069,-0.0824882835149765,0.09075846523046494,0.04313572868704796,0.16820128262043,0.0950278788805008,-0.04432201758027077,-0.07976946979761124,0.07277192920446396,-0.1851426362991333,0.006818774621933699,-0.0166209414601326,0.28039979934692383,0.17951270937919617,0.365168958902359,-0.13919401168823242,-0.06785411387681961,-0.10962340235710144,0.059833917766809464,0.16250364482402802,0.004437779076397419,-0.25959354639053345,-0.09560146182775497,-0.21162869036197662,0.06884598731994629,-0.12207406014204025,-0.06070921570062637,-0.1713823527097702,0.06479593366384506,-0.02389664202928543,-0.01375675667077303,-0.09778451174497604,0.022978294640779495,0.03097248636186123,0.0630393847823143,-0.08305834978818893,0.03285272791981697,0.21325579285621643,-0.0679626539349556,0.006143114063888788,0.1688995659351349,-0.19049374759197235,0.22520442306995392,0.18461912870407104,0.06965325772762299,-0.5692631602287292,0.03182346746325493,0.039300426840782166,0.8412213325500488,-0.26812630891799927,0.13632908463478088,-0.32555633783340454,-0.3617386221885681,0.0810329020023346,0.021602001041173935,-0.11915639042854309,0.05207459256052971,-0.18557120859622955,-0.08403477072715759,-0.349641889333725,-0.07491960376501083,0.05378513038158417,0.27828991413116455,0.17105752229690552,-0.06616053730249405,-0.36418694257736206,-0.05391206964850426,0.17155975103378296,0.3156237006187439,0.007935971021652222,0.05419328808784485,0.26167628169059753,-0.37690871953964233,0.21234868466854095,0.27803412079811096,-0.08654926717281342,-0.16243146359920502,-0.1942894607782364,-0.14716139435768127,0.3196442425251007,0.5201022028923035,-0.30604371428489685,0.18842361867427826,-0.007490707095712423,-0.5021525025367737,-0.03847314044833183,-0.0028713378123939037,-0.2623818814754486,0.004950992297381163,-0.18127478659152985,0.04647498205304146,0.07057306915521622,0.09333914518356323,-0.22503657639026642,0.49112600088119507,0.26245826482772827,0.2846643924713135,-0.5650416612625122,0.02310255728662014,-0.003466630121693015,0.096350759267807,-0.19273240864276886,0.04125736653804779,0.12194453924894333,-0.00009897834388539195,-0.11195427179336548,-0.0847742110490799,-0.09902036935091019,0.2641213536262512,-0.06863271445035934,0.2735310196876526,-0.10643722116947174,-0.06242579594254494,0.026064854115247726,0.2766736149787903,0.13594983518123627,0.0652865320444107,-0.12454116344451904,-0.0667489692568779,-0.11988849937915802,-0.14922687411308289,0.182309091091156,0.07894954085350037,-0.19588373601436615,-0.004214117769151926,-0.46037960052490234,-0.15037453174591064,0.502631664276123,0.40531477332115173,-0.7581321597099304,0.40417835116386414,0.05388108640909195,-0.0256896261125803,0.13089212775230408,-0.0734081119298935,-0.21032018959522247,0.04534495249390602,0.069697305560112,0.20918062329292297,-0.0015697273192927241,-0.19625955820083618,0.09048794955015182,-0.05480522662401199,-0.48140859603881836,0.02306874468922615,0.2348315715789795,-0.41793036460876465,0.05529794842004776,0.14180898666381836,-0.05355851724743843,0.08420727401971817,0.00781441479921341,-0.25146734714508057,0.1647261679172516,0.11979713290929794,0.4139666259288788,-0.3290601372718811,-0.17439350485801697,-0.3444978594779968,-0.23586153984069824,0.16667786240577698,0.3736862540245056,-0.3393779397010803,-0.035290688276290894,-0.1295410841703415,0.39849624037742615,0.08610019832849503,0.24958088994026184,-0.13303746283054352,-0.16789261996746063,-0.17280015349388123,0.3341868817806244,0.2573143243789673,0.6640343070030212,0.18360397219657898,-0.15518948435783386,-0.4956437349319458,0.9382100701332092,-0.09891390055418015,0.13777126371860504,-0.1344190388917923,-0.09611701220273972,-0.21304143965244293,0.2612006962299347,-0.07732301205396652,0.26442623138427734,-0.28454694151878357,-0.14278483390808105,-0.32887670397758484,-0.050663743168115616,-0.223666250705719,-0.045677296817302704,-0.029895197600126266,0.364035427570343,0.035455163568258286,-0.20110268890857697,0.16033582389354706,0.28526899218559265,0.03550383448600769,0.10463538765907288,-0.0918780267238617,0.11581775546073914,-0.006896371953189373,0.1331624835729599,0.2658134698867798,0.07765103131532669,0.03874923661351204,-0.360962837934494,0.17842544615268707,-0.016003277152776718,0.2903628349304199,-0.0370929092168808,0.006307356990873814,-0.27628302574157715,-0.07238379120826721,0.07803991436958313,0.3042728304862976,0.03955196589231491,0.09167797118425369,-0.36163267493247986,0.11333997547626495,0.8375667333602905,0.13883033394813538,-0.11787518113851547,-0.5045449137687683,0.4667358100414276,0.032745327800512314,-0.14350461959838867,0.18595437705516815,-0.2080286145210266,-0.09969887882471085,-0.014250067062675953,-0.04665200784802437,-0.05159834399819374,0.1876126080751419,-0.0487547367811203,-0.05198865756392479,0.04887901991605759,0.15655772387981415,0.13614323735237122,-0.00012283844989724457,0.07458662986755371,-0.10990258306264877,-0.10186576098203659,0.36588284373283386,-0.0008965831366367638,-0.03073238953948021,0.11877739429473877,-0.02600131370127201,-0.14367270469665527,-0.10519951581954956,0.23912310600280762,0.19452902674674988,-0.20343829691410065,-0.020205343142151833,-0.22074905037879944,0.11882168054580688,0.11613782495260239,0.14881272614002228,-0.21161624789237976,-0.1148291602730751,-0.4025495946407318,0.3516221046447754,0.17574335634708405,0.2524183392524719,-0.15042412281036377,0.03960496932268143,-0.38058626651763916,0.2850015461444855,-0.27939245104789734,-0.5216573476791382,0.27990180253982544,-0.06232115998864174,0.0897526666522026,-0.18350785970687866,-0.12669821083545685,0.1432766169309616,-0.23701800405979156,0.04645666480064392,0.022409435361623764,0.40313833951950073,0.03329576924443245,0.2658732831478119,-0.13049131631851196,0.27051687240600586,0.21604616940021515,0.08852735906839371,-0.14286401867866516,-0.1539914309978485,-0.605219841003418,0.1874457150697708,0.02412818744778633,0.28252801299095154,0.12915578484535217,-0.019901739433407784,-0.07438913732767105,0.13635684549808502,0.14503593742847443,-0.07115589827299118,-0.08527040481567383,0.017630621790885925,0.000791644852142781,0.08429338783025742,0.07027968764305115,0.14973947405815125,-0.09009575098752975,-0.13316692411899567,0.19298437237739563,-0.056764282286167145,-0.11288687586784363,0.0045564803294837475,-0.025912532582879066,0.02557477355003357,0.013589475303888321,0.057926494628190994,0.01476913783699274,-0.2882976233959198,-0.18255364894866943,0.001105793402530253,0.4029988944530487,-0.09756079316139221,0.08977033942937851,0.24341242015361786,0.08557232469320297,-0.10700438171625137,-0.04670526459813118,0.0207513477653265,-0.11684153974056244,0.10494446754455566,0.06267766654491425,-0.0501418374478817,-0.008119317702949047,0.22566263377666473,0.17215143144130707,-0.21224579215049744,-0.1546649932861328,-0.16316446661949158,0.47853973507881165,-0.07867521792650223,-0.12485533952713013,-0.11880388110876083,-0.05540924891829491,0.10522714257240295,-0.1159517765045166,0.0858006551861763,-0.03250311687588692,0.005862215533852577,-0.13832487165927887,0.12142030149698257,0.05251919478178024,0.2570432722568512,-0.05008310824632645,0.034479327499866486,-0.14312471449375153,0.2014622539281845,0.15022581815719604,0.07724087685346603,0.011662079021334648,0.06809547543525696,-0.1083812564611435,-0.05889160558581352,-0.17173440754413605,-0.0667458176612854,-0.16613148152828217,0.015705987811088562,-0.2555835545063019,-0.05555298551917076,-0.13738006353378296,-0.20357443392276764,0.014754165895283222,-0.37147074937820435,-0.14386194944381714,0.1364087164402008,-0.06275477260351181,0.001679161679930985,-0.20838381350040436,0.012935140170156956,-0.11381534487009048,0.12148306518793106,-0.08677307516336441,-0.03324168175458908,0.04324353486299515,-0.2531068027019501,0.045820675790309906,-0.19569624960422516,-0.2074035406112671,-0.24859973788261414,0.28835028409957886,0.06733020395040512,-0.30250784754753113,-0.04557414352893829,-0.06206948682665825,-0.2661054730415344,0.07092541456222534,-0.09690117090940475,0.3669588267803192,-0.19696931540966034,0.046485885977745056,-0.3013762831687927,0.2320089489221573,0.1330609768629074,0.1784144937992096,-0.24937042593955994,-0.03222588449716568,-0.30117347836494446,0.2876611351966858,0.18549981713294983,-0.15840429067611694,-0.3960365653038025,-0.22578831017017365,-0.23652590811252594,0.28982970118522644,0.07169972360134125,-0.4300730228424072,0.48101159930229187,-0.21416398882865906,0.37702441215515137,-0.5307772755622864,-0.1548340916633606,0.3551423251628876,-0.21581995487213135,0.09651297330856323,-0.07966896146535873,0.3828834593296051,0.15650708973407745,0.2526412904262543,-0.34761348366737366,-0.12960484623908997,0.2570786476135254,-0.29052770137786865,0.12925474345684052,-0.2176806479692459,0.002055899938568473,-0.22320997714996338,-0.06585618853569031,0.1680741161108017,0.26335546374320984,-0.11775460839271545,-0.08709771186113358,-0.07560377568006516,0.006257961038500071,-0.03725937381386757,-0.22266003489494324,0.26848500967025757,0.2995094358921051,0.16815274953842163,0.05066476762294769,-0.07245827466249466,-0.025504767894744873,0.2859064042568207,0.21232427656650543,0.09692888706922531,-0.06314627826213837,-0.1926167607307434,-0.11686933785676956,-0.15509089827537537,0.015032818540930748,-0.16436973214149475,-0.14395800232887268,-0.03939943388104439,-0.04464589059352875,-0.17231795191764832,-0.0030734341125935316,0.28499504923820496,-0.00884019210934639,-0.2547985315322876,0.19129309058189392,0.2274399995803833,0.04087086021900177,0.19904851913452148,0.09112299233675003,0.11511031538248062,0.031225599348545074,-0.1281358301639557,0.06982926279306412,0.10717326402664185,-0.1958216279745102,0.5394164323806763,-0.11793754249811172,0.09770230948925018,-0.030780620872974396,-0.003252338385209441,0.05207884684205055,0.2448289841413498,-0.09194663166999817,-0.08179441839456558,-0.03403683006763458,-0.1380435675382614,0.19856637716293335,0.001022965763695538,-0.131807342171669,-0.1776689887046814,-0.2977200150489807,0.07727595418691635,-0.13295741379261017,0.04862344264984131,-0.043169546872377396,-0.19302277266979218,-0.2170630693435669,0.018582947552204132,0.03676093742251396,0.24531488120555878,0.1883881390094757,-0.11470683664083481,-0.04139399901032448,-0.18714693188667297,0.09188685566186905,0.3085775673389435,0.08490646630525589,-0.007249813061207533,-0.08671911060810089,0.1767050325870514,0.13044796884059906,-0.0945100411772728,0.026011331006884575,-0.08642468601465225,-0.07067789882421494,-0.19089996814727783,0.1704394519329071,0.07200052589178085,0.03342248499393463,-0.066842220723629,-0.12925812602043152,-0.10216239094734192,0.31194648146629333,0.06585350632667542,0.10128998756408691,-0.5199342370033264,-0.22478242218494415,-0.24463948607444763,0.2973577678203583,0.08246146887540817,0.2276504933834076,-0.04697888717055321,-0.016011064872145653,0.1539761871099472,-0.1455196738243103,0.05296240374445915,0.11029452830553055,-0.08900938183069229,-0.015277757309377193,-0.1403922140598297,0.05088181048631668,0.20855151116847992,0.11812765151262283,0.10331244021654129,-0.005735732614994049,-0.09992092847824097,-0.010872372426092625,-0.07368632405996323,0.16716308891773224,0.17881199717521667,-0.17655594646930695,-0.010214623995125294,0.10819560289382935,0.010835112072527409,0.0875728651881218,0.2311791628599167,0.3277849555015564,0.05740995332598686,0.019562480971217155,0.09974098205566406,-0.03990539535880089,0.3369784355163574,0.241806298494339,0.0909452810883522,0.03969455510377884,0.007249525748193264,-0.004033805802464485,-0.014566748403012753,-0.06444033235311508,0.12382892519235611,-0.005620790179818869,0.2810038626194,0.06105593591928482,0.010836855508387089,0.0032837491016834974,-0.23899249732494354,-0.09991227835416794,0.004956965334713459,0.30170536041259766,-0.03927340358495712,-0.09863324463367462,0.1113942414522171,0.17806725203990936,0.13534383475780487,0.14230820536613464,0.16878220438957214,0.07131870090961456,-0.23848401010036469,0.0961826890707016,0.045626457780599594,0.27792635560035706,0.039847876876592636,0.18067121505737305,-0.3006132245063782,-0.0031593255698680878,-0.2608826458454132,0.14437808096408844,-0.11484821140766144,0.04784088954329491,0.07942753285169601,-0.11794921010732651,-0.11389246582984924,0.4631231725215912,-0.34028613567352295,-0.46764329075813293,0.6942412853240967,0.09129586815834045,0.4654172658920288,-0.24443413317203522,0.02052364870905876,0.14323104918003082,-0.19840562343597412,-0.12852708995342255,-0.05060575157403946,0.10658112168312073,0.1433650404214859,0.04382219910621643,-0.13577277958393097,-0.03868131339550018,0.08422982692718506,-0.29518595337867737,-0.038608621805906296,-0.09961168467998505,0.02878406085073948,-0.1398218870162964,0.18305304646492004,-0.0019555275794118643,0.05304426699876785,0.1462324857711792,-0.0698443353176117,-0.0979563519358635,0.06012040004134178,0.07333758473396301,-0.012375972233712673,-0.4139232337474823,-0.05880844593048096,-0.07388979196548462,0.18319401144981384,-0.19610708951950073,0.16592665016651154,-0.3319650888442993,-0.13514986634254456,-0.2138550728559494,0.16920700669288635,-0.006331722252070904,0.005599161144345999,0.12787482142448425,0.15894776582717896,-0.16501887142658234,0.27600911259651184,-0.10608837753534317,0.03469524905085564,0.6372318267822266,0.4074333906173706,-0.02884138561785221,-0.2644158899784088,-0.3402215838432312,0.06506195664405823,0.0337495394051075,-0.17176832258701324,-0.14602155983448029,-0.07446816563606262,-0.1011488288640976,0.17751574516296387,-0.030038947239518166,0.1372288465499878,0.16881512105464935,0.22619469463825226,0.038318783044815063,0.07654654234647751,-0.17412251234054565,0.21384800970554352,-0.06042319908738136,0.0939287394285202,-0.04629058763384819,-0.07111600041389465,0.20830047130584717,0.21654532849788666,0.18671101331710815,0.09243441373109818,0.0696113258600235,-0.08745463192462921,-0.7642576098442078,0.3629210889339447,0.17862319946289062,-0.5835996866226196,-0.04792370647192001,-0.7281916737556458,-0.29212042689323425,-0.5703699588775635,0.6290622353553772,-0.740014910697937,-0.6259698867797852,-0.9604045152664185,0.36168423295021057,-0.9399604797363281,0.19714108109474182,-0.5056626200675964,-0.08124842494726181,-0.027694251388311386,0.10302653163671494,0.23011185228824615,0.04767175763845444,-0.07080236822366714,-0.002213383326306939,-0.15884524583816528,-0.15050894021987915,-0.06487499922513962,0.12495926767587662,0.2963606119155884,0.08344557136297226,0.33250975608825684,-0.2988258898258209,0.05409765988588333,0.05460813269019127,-0.20468702912330627,-0.061153728514909744,0.14740987122058868,-0.25354596972465515,0.374143123626709,-0.34179434180259705,-0.3923725485801697,0.2810788154602051,-0.2823866009712219,0.17897945642471313,0.05904116481542587,0.06126296892762184,-0.061023857444524765,0.1587187647819519,0.22655107080936432,-0.021542932838201523,-0.23067587614059448,-0.07804318517446518,0.2159636914730072,-0.004234453197568655,0.14795167744159698,-0.26091840863227844,-0.03593479469418526,-0.053329043090343475,0.03546418622136116,-0.005165339447557926,-0.22208881378173828,-0.014875571243464947,0.02455241233110428,-0.043658483773469925,0.10721143335103989,0.09975732862949371,-0.10010286420583725,-0.11945504695177078,-0.07887265831232071,-0.12806954979896545,0.08833275735378265,-0.10141073167324066,-0.029410135000944138,-0.026414211839437485,0.3321680426597595,-0.028768323361873627,0.12108423560857773,0.17586395144462585,-0.505744218826294,0.30309563875198364,-0.10252448916435242,0.15408118069171906,0.1413854956626892,-0.028833525255322456,0.0010580717353150249,0.10354256629943848,-0.04346102103590965,0.002991581568494439,0.0980677530169487,0.19938364624977112,-0.030357737094163895,-0.02676328271627426,0.08968961238861084,-0.20705929398536682,0.12054582685232162,-0.2193622589111328,-0.13048890233039856,-0.45214512944221497,-0.12644493579864502,-0.2695791721343994,0.0728347897529602,0.09693937748670578,-0.19907890260219574,0.02517598122358322,-0.15478767454624176,0.2213432490825653,0.07616119831800461,0.015901073813438416,-0.23925623297691345,-0.09854362905025482,0.03551827371120453,0.029414724558591843,0.24365748465061188,0.166477233171463,-0.07854120433330536,0.23144729435443878,-0.2396131455898285,-0.09683933109045029,0.36800438165664673,-0.16682103276252747,-0.04852481186389923,0.07205557823181152,0.06607940793037415,-0.188003808259964,0.010288400575518608,-0.32416242361068726,-0.1396535038948059,0.26854902505874634,0.17044444382190704,0.03064260259270668,-0.055521078407764435,-0.11529478430747986,-0.03326199948787689,0.12470563501119614,0.0668923407793045,0.027942189946770668,0.06036887690424919,0.026589596644043922,-0.03216776251792908,-0.042362723499536514,-0.04850868880748749,-0.10474725067615509,0.20943501591682434,0.22889387607574463,0.04036572203040123,0.09511219710111618,0.15222647786140442,-0.06968074291944504,-0.0021279340144246817,-0.16439147293567657,-0.056833501905202866,-0.014187837019562721,0.022322649136185646,0.07224782556295395,0.3791120648384094,0.049810413271188736,-0.06865502893924713,-0.08564939349889755,-0.012938311323523521,0.10649938136339188,0.055443279445171356,-0.10506278276443481,0.005627527367323637,0.004559858236461878,-0.032993823289871216,0.04692061245441437,-0.12850645184516907,0.22366665303707123,-0.022078504785895348,-0.11805539578199387,0.2944818139076233,0.1862201988697052,0.3335375189781189,0.1240222156047821,0.14675499498844147,-0.12367513030767441,-0.11531189829111099,0.03852015733718872,-0.12751124799251556,-0.0888686329126358,0.17750898003578186,0.14604154229164124,-0.17867837846279144,-0.1249123364686966,0.13953036069869995,0.2963780462741852,0.30229276418685913,-0.15286855399608612,0.166007861495018,0.13006114959716797,-0.31114116311073303,-0.17895850539207458,-0.10607603937387466,0.17347969114780426,0.23159274458885193,-0.22065408527851105,0.08951134234666824,-0.05800992622971535,-0.106998011469841,-0.044907599687576294,0.42934364080429077,-0.30131277441978455,0.40721631050109863,0.24689467251300812,-0.15880879759788513,-0.12204901874065399,-0.3712657392024994,0.15278743207454681,-0.2212763875722885,-0.03321313112974167,-0.42019301652908325,-0.286143958568573,-0.2227407991886139,0.1603330671787262,0.1199607402086258,0.027025138959288597,0.004101593978703022,-0.07849840819835663,-0.11053094267845154,-0.1121937558054924,-0.25506117939949036,0.08547110110521317,-0.34920772910118103,-0.3615095317363739,0.010220294818282127,0.13722045719623566,-0.03957892954349518,-0.06383409351110458,0.20901373028755188,-0.08777271956205368,0.13031092286109924,0.2160845696926117,-0.09365799278020859,-0.024582790210843086,0.3600783348083496,-0.023291978985071182,0.18557611107826233,0.30556270480155945,0.2245190292596817,0.001096688793040812,-0.12788301706314087,-0.16320975124835968,0.34357088804244995,0.006753853987902403,-0.07898189127445221,-0.19394218921661377,-0.24854907393455505,0.15032781660556793,-0.022832563146948814,-0.1638452559709549,0.28198057413101196,-0.17951315641403198,-0.08733675628900528,-0.019061503931879997,0.027461105957627296,0.24169321358203888,0.26383474469184875,-0.05999516695737839,-0.4524800181388855,-0.1389894187450409,0.061967454850673676,-0.3046567738056183,0.34609612822532654,-0.42068830132484436,-0.031141577288508415,0.07390638440847397,-0.11291380971670151,0.39701586961746216,0.0666591003537178,-0.12602569162845612,0.03341956436634064,0.1442924439907074,0.019273603335022926,-0.10714922100305557,0.009156945161521435,-0.04214012250304222,-0.2210523635149002,-0.05252775549888611,0.06406618654727936,0.10690442472696304,0.08133336156606674,-0.009654100053012371,-0.06973841041326523,0.04161688685417175,-0.2141324281692505,-0.008510096929967403,-0.21027995645999908,0.05415485426783562,-0.18463659286499023,0.26203832030296326,-0.06011023372411728,-0.026519041508436203,0.1529703289270401,-0.5486941337585449,-0.0354502908885479,0.1989523470401764,-0.22507399320602417,-0.0029727965593338013,0.31389760971069336,-0.023082086816430092,0.12927453219890594,0.07758130133152008,0.27927687764167786,-0.09049531817436218,0.25622788071632385,0.050605058670043945,-0.047522932291030884,-0.21889160573482513,-0.4594392776489258,-0.03483600541949272,-0.12005627900362015,0.259147971868515,-0.08463452756404877,0.020871013402938843,-0.1028943657875061,0.005291284993290901,-0.08278986811637878,0.39520636200904846,-0.05701398476958275,0.1959945410490036,0.16878780722618103,-0.07479206472635269,0.11933133751153946,0.3941330313682556,-0.08330724388360977,0.23847532272338867,-0.3024926781654358,0.23246635496616364,-0.016363942995667458,0.3163164258003235,0.14080142974853516,0.3125676214694977,-0.1605546623468399,-0.0399540551006794,-0.006346835754811764,-0.6354447603225708,0.11339019984006882,0.08767104148864746,0.07610593736171722,0.09196826815605164,0.036206670105457306,0.13510996103286743,-0.09989899396896362,0.20026692748069763,0.07657963782548904,0.023586515337228775,-0.055006079375743866,-0.21843881905078888,0.20657546818256378,-0.05644386634230614,-0.20917657017707825,-0.01706537976861,0.0015093379188328981,0.6296929121017456,-0.07782777398824692,0.06391864269971848,-0.15378475189208984,0.11219335347414017,-0.07038950175046921,0.10692265629768372,0.10965950787067413,0.048815954476594925,-0.22272181510925293,-0.24053078889846802,0.07230643182992935,0.04150795564055443,-0.05858905240893364,0.13063396513462067,-0.19042089581489563,-0.005889546126127243,-0.19233812391757965,-0.6579818725585938,0.2656131386756897,-0.18315339088439941,0.296698659658432,0.0374123640358448,0.38890576362609863,0.08279063552618027,-0.3648317754268646,0.1790871024131775,-0.015030616894364357,-0.15438078343868256,0.1517469584941864,0.5217423439025879,0.29853957891464233,-0.398996502161026,0.22446493804454803,-0.12315183132886887,0.039182644337415695,-0.1630425602197647,-0.3831633925437927,0.1763240545988083,0.07556329667568207,-0.07765699177980423,-0.14972373843193054,-0.11922741681337357,-0.06756514310836792,-0.24797283113002777,-0.09909842163324356,0.3797789216041565,0.11020299792289734,0.200386643409729,0.4973611831665039,-0.055910952389240265,-0.1788068264722824,-0.22484615445137024,-0.03606436774134636,0.022191504016518593,0.24747829139232635,-0.05417342111468315,-0.13544979691505432,-0.24569447338581085,0.028810398653149605,0.16026301681995392,0.06968499720096588,0.08780510723590851,-0.06179485842585564,-0.2293505072593689,0.05658525973558426,-0.23943409323692322,-0.24162054061889648,0.17927245795726776,-0.0443531796336174,0.08262527734041214,0.014436918310821056,-0.3604537844657898,-0.4332510828971863,-0.04158926010131836,-0.16924065351486206,0.210487499833107,-0.01705043576657772,-0.13922546803951263,-0.4452308416366577,-0.44985803961753845,-0.1734139621257782,-0.1295328289270401,-0.004658637568354607,0.23358257114887238,-0.05461032688617706,0.15427115559577942,0.26694968342781067,-0.09720008820295334,-0.0794546902179718,-0.14997708797454834,-0.3086822032928467,-0.06076176092028618,-0.16649459302425385,-0.023257065564393997,-0.029522400349378586,0.272222101688385,0.19252575933933258,0.09821666032075882,-0.2767246961593628,0.07619273662567139,0.02933819405734539,-0.0360591895878315,0.22271767258644104,0.002570891985669732,0.09777165204286575,-0.15133172273635864,-0.24972181022167206,-0.28368836641311646,-0.18880747258663177,-0.03481748327612877,0.09779729694128036,0.15596681833267212,0.4225681722164154,0.06638845801353455,-0.07348009943962097,-0.052400775253772736,-0.056263647973537445,-0.09021743386983871,-0.03807859867811203,-0.27132928371429443,-0.23520183563232422,0.1489054560661316,0.1755242645740509,-0.03579305112361908,0.1524507999420166,0.12727093696594238,-0.021923458203673363,-0.2308618128299713,-0.2715407907962799,-0.25071901082992554,0.08038829267024994,-0.06743697822093964,0.06056607514619827,-0.03001275658607483,-0.05365388095378876,-0.033458635210990906,0.24525856971740723,0.09037675708532333,-0.14339807629585266,-0.4921373128890991,-0.13826671242713928,-0.1123427152633667,-0.04066046327352524,0.14326941967010498,0.09048976004123688,-0.40667757391929626,-0.12745130062103271,-0.05733872950077057,-0.10368489474058151,0.10391920804977417,-0.08174998313188553,-0.04330291971564293,-0.31606945395469666,0.18947631120681763,-0.01731366477906704,0.13582691550254822,0.00503291841596365,0.20521730184555054,-0.028967978432774544,0.1431584507226944,0.12675179541110992,0.14782686531543732,0.045374467968940735,0.2909925580024719,0.056321218609809875,-0.14019976556301117,0.28740960359573364,0.19658809900283813,-0.16995927691459656,-0.16697505116462708,-0.272531121969223,0.4479868412017822,0.13985781371593475,0.0029227971099317074,-0.20581702888011932,-0.17139405012130737,0.3079199194908142,-0.3561477065086365,0.11501781642436981,-0.11712229251861572,0.037264373153448105,0.07632888853549957,-0.24303872883319855,-0.14063042402267456,-0.2797915041446686,-0.34248852729797363,-0.11242087930440903,-0.19481267035007477,-0.19722306728363037,0.11931070685386658,-0.19743870198726654,-0.06117036193609238,-0.07904168218374252,0.15899334847927094,0.00887258816510439,0.2651466727256775,-0.1846272349357605,-0.07164879888296127,0.18998275697231293,0.20287203788757324,-0.071030393242836,-0.1026417687535286,-0.18643291294574738,0.10104092955589294,-0.17724375426769257,0.22279469668865204,0.24331854283809662,-0.35526642203330994,-0.2750827670097351,-0.4924273192882538,0.0657341256737709,0.015913942828774452,-0.21056148409843445,0.040488824248313904,0.3552747368812561,0.16155321896076202,-0.022169116884469986,0.026022834703326225,-0.015113847330212593,-0.2214740514755249,0.15576407313346863,-0.2004462033510208,0.18731847405433655,0.12933988869190216,-0.5346789360046387,0.01949443481862545,0.11381630599498749,-0.25207385420799255,-0.12887030839920044,0.3196526765823364,-0.2471185326576233,-0.12024486809968948,-0.1481379121541977,0.41217461228370667,0.16818144917488098,-0.25952157378196716,0.2236323356628418,-0.13923604786396027,0.5241487622261047,0.04079340025782585,-0.10081586986780167,-0.0529329888522625,0.5751497149467468,-0.023699797689914703,0.09858260303735733,0.10501814633607864,-0.08354446291923523,-0.05686260759830475,-0.033845581114292145,0.17165115475654602,-0.2123967409133911,0.23964570462703705,0.006625200156122446,-0.020777497440576553,-0.031653642654418945,0.07794225960969925,-0.04664730653166771,-0.4574337601661682,0.00020594797388184816,0.00228458596393466,0.06461203843355179,0.2106872797012329,0.07071798294782639,-0.04857630655169487,-0.12188900262117386,0.1933150291442871,-0.0756784975528717,0.06679214537143707,0.17335966229438782,-0.7284393906593323,0.2334924191236496,0.1328122764825821,-0.10060574114322662,0.14605392515659332,0.2500990033149719,0.012959879823029041,0.05766184255480766,0.08116310089826584,0.0317230299115181,-0.11016372591257095,-0.1460970789194107,0.05803755670785904,0.01566416770219803,-0.08427909016609192,0.1327274739742279,0.22449707984924316,0.014138789847493172,0.030512040480971336,-0.03250395134091377,-0.2585320770740509,0.008263797499239445,0.17240405082702637,-0.2632187306880951,0.00020088460587430745,-0.023904593661427498,0.10288716852664948,0.025325313210487366,-0.21854336559772491,-0.19726328551769257,0.147511288523674,0.050644759088754654,0.34022068977355957,0.01065696682780981,-0.04173508286476135,-0.07802361994981766,0.022612854838371277,-0.24426352977752686,0.022877341136336327,-0.08035921305418015,0.043413251638412476,0.21110257506370544,-0.09248589724302292,-0.08335968852043152,0.3086082339286804,-0.011997357942163944,-0.17288467288017273,-0.2891656160354614,0.006090105976909399,0.06970547139644623,-0.12940719723701477,0.1704508364200592,-0.03630249947309494,0.20015454292297363,-0.025616426020860672,-0.018687428906559944,-0.1272335946559906,0.1416901797056198,-0.14377254247665405,0.30092477798461914,-0.07646424323320389,-0.06155668571591377,-0.0051761469803750515,0.1581055223941803,0.05854099616408348,-0.6437128782272339,-0.09277547150850296,-0.09426511824131012,0.35036200284957886,-0.25785601139068604,-0.0901867002248764,-0.013182875700294971,-0.15087756514549255,0.05685160309076309,0.10563866049051285,-0.06460487097501755,-0.015697382390499115,0.032889824360609055,0.16975973546504974,0.14425618946552277,0.049401309341192245,0.07126893103122711,-0.11547526717185974,0.2309214174747467,-0.04913057014346123,0.10075674951076508,-0.34622207283973694,0.08910735696554184,-0.15597812831401825,0.10392601788043976,0.045097559690475464,0.08004070818424225,0.09140630811452866,0.3039677143096924,-0.09749118238687515,0.17996357381343842,0.07211534678936005,-0.21138742566108704,-0.34647074341773987,0.06167297437787056,-0.45964735746383667,-0.1840992271900177,0.05990113690495491,0.09726276248693466,-0.16270466148853302,0.010130474343895912,0.1284593790769577,0.013104514218866825,-0.05090583115816116,0.02120731957256794,0.1546589881181717,0.28416481614112854,0.08586584031581879,-0.04018130898475647,-0.055439140647649765,-0.08089656382799149,-0.10281756520271301,-0.07015527784824371,-0.31261590123176575,0.22685003280639648,-0.09470963478088379,-0.13751746714115143,-0.1405009627342224,-0.1453171670436859,0.18461667001247406,0.30509334802627563,0.023967301473021507,-0.0343652106821537,-0.10139112919569016,-0.05517986789345741,0.0060747647657990456,0.21712900698184967,0.16828316450119019,0.23022982478141785,-0.003059002570807934,0.16463856399059296,-0.023783693090081215,-0.2290090173482895,-0.048512235283851624,-0.029172448441386223,-0.19369496405124664,-0.06195167824625969,-0.06568475067615509,-0.15088538825511932,-0.2674863934516907,-0.1964881271123886,0.22554422914981842,-0.08235777169466019,0.09298471361398697,-0.06030600890517235,0.006874674931168556,0.1366174817085266,-0.04223224148154259,-0.02580930106341839,0.16973918676376343,-0.005560286808758974,-0.023822998628020287,0.008764765225350857,-0.028303077444434166,-0.46107742190361023,-0.18116988241672516,0.10005099326372147,0.281441330909729,0.07477863132953644,0.17270103096961975,-0.016108466312289238,-0.1375638246536255,0.19681662321090698,0.21319535374641418,-0.11447176337242126,-0.08968379348516464,0.07973524928092957,0.04159069433808327,-0.08741042017936707,-0.023720640689134598,-0.13102313876152039,0.07137097418308258,0.03829532489180565,0.42278048396110535,0.0034045970533043146,0.06627941131591797,0.09344672411680222,-0.07463911920785904,0.16545802354812622,0.27658945322036743,-0.09003741294145584,-0.22450685501098633,-0.3001193106174469,-0.08809181302785873,0.08792543411254883,-0.22475609183311462,0.02646244503557682,-0.06016816943883896,-0.276447057723999,-0.06896007061004639,-0.48430994153022766,-0.148367777466774,-0.14123490452766418,0.1792747527360916,-0.16085347533226013,-0.012096931226551533,0.17062868177890778,0.06241777539253235,-0.03419758751988411,0.43062907457351685,-0.1474754959344864,0.15817509591579437,-0.1338544636964798,0.1458602249622345,-0.026965679600834846,-0.4355459213256836,-0.015135492198169231,0.0029778166208416224,0.6413903832435608,0.12447519600391388,0.22741109132766724,-0.1894417405128479,-0.1044541597366333,-0.22360986471176147,0.35221752524375916,-0.07521669566631317,-0.06022029370069504,-0.3143374025821686,0.05452724173665047,-0.11623716354370117,0.00405164947733283,-0.14381368458271027,0.13156694173812866,0.4972623884677887,-0.15884444117546082,-0.14646662771701813,-0.1777200549840927,-0.16144748032093048,-0.15651348233222961,-0.09726491570472717,0.051807645708322525,-0.17978812754154205,0.26023948192596436,0.05083315074443817,0.06062494218349457,0.02037566900253296,-0.3402389883995056,-0.14369966089725494,0.1887379288673401,0.2796584963798523,0.11891074478626251,0.05686616152524948,-0.0834021046757698,-0.15423505008220673,-0.2471211552619934,-0.04955560341477394,0.11060754954814911,0.1927645355463028,-0.03836143761873245,0.08005276322364807,-0.08042968809604645,0.36752262711524963,-0.14315685629844666,-0.14381253719329834,0.02442890964448452,-0.203054279088974,-0.0765841156244278,-0.5064883828163147,0.07454238831996918,-0.09505418688058853,-0.0176053699105978,0.0900145024061203,-0.09125471860170364,0.1556890457868576,0.028769468888640404,0.1218574270606041,-0.10458914190530777,0.043244145810604095,0.08844605833292007,-0.18927763402462006,-0.23869383335113525,-0.25383973121643066,0.3831171989440918,-0.11602813005447388,-0.22942128777503967,0.08838030695915222,0.30679526925086975,-0.07086202502250671,-0.040127918124198914,0.02869977429509163,0.050140392035245895,0.026329077780246735,-0.10859450697898865,0.2008279263973236,0.2495289146900177,-0.2685505151748657,-0.1645280420780182,0.290022611618042,0.20977520942687988,0.014199359342455864,-0.2941945791244507,0.14037644863128662,0.005435206461697817,-0.09908987581729889,0.03406454622745514,-0.034087907522916794,-0.011156492866575718,-0.1218266487121582,0.05936168506741524,0.25932836532592773,-0.08657858520746231,0.1215163990855217,-0.06522837281227112,0.04144835099577904,-0.17450132966041565,-0.30244651436805725,-0.009298978373408318,0.0046427552588284016,-0.013965423218905926,0.014057597145438194,0.040692660957574844,-0.11153456568717957,-0.06628203392028809,-0.14293347299098969,0.2537657916545868,0.08019660413265228,-0.08706222474575043,0.11586541682481766,0.019587848335504532,0.0977545976638794,-0.015044470317661762,0.11462036520242691,0.26608121395111084,-0.28519436717033386,0.2369336485862732,0.0868387296795845,-0.3094240427017212,-0.07640941441059113,-0.1163141280412674,-0.41385766863822937,0.0089061688631773,-0.2131412774324417,-0.5759114623069763,0.24144674837589264,-0.2580382227897644,0.09736177325248718,-0.06770073622465134,-0.3354146182537079,-0.029642228037118912,-0.0043376656249165535,-0.285856693983078,-0.1291966438293457,-0.006638720165938139,-0.14749768376350403,0.09880884736776352,-0.17102301120758057,-0.013918866403400898,-0.18215566873550415,0.02141669951379299,-0.0042903670109808445,-0.2814686596393585,-0.23927804827690125,-0.03615867719054222,0.09265418350696564,0.08054278045892715,0.06469830870628357,0.22909381985664368,-0.008594010956585407,-0.19931155443191528,-0.025805534794926643,0.25224190950393677,0.12164127081632614,0.13969703018665314,0.06927765160799026,-0.01729392819106579,-0.08754605799913406,-0.014509392902255058,0.053900521248579025,0.011957705952227116,-0.09339798241853714,-0.10277652740478516,-0.16072069108486176,-0.03235159069299698,-0.39452680945396423,0.17126347124576569,0.003095087828114629,-0.025597812607884407,-0.2141752541065216,0.30067935585975647,-0.23117472231388092,0.4166213572025299,0.123918816447258,0.17885391414165497,0.5995258688926697,-0.051221225410699844,-0.1244976818561554,0.3844813406467438,-0.1774865984916687,-0.04401591047644615,0.27257710695266724,-0.14376871287822723,-0.26319414377212524,-0.02167803980410099,-0.026040174067020416,0.44416123628616333,-0.13767042756080627,0.03807462006807327,-0.5015497803688049,-0.09499196708202362,-0.09704563766717911,-0.05573101341724396,-0.1510944366455078,0.05688856169581413,0.10469598323106766,0.023501992225646973,0.05805312842130661,-0.05790799483656883,0.12827211618423462,-0.031427111476659775,0.08812180161476135,-0.2545599937438965,-0.16424742341041565,-0.31211480498313904,0.30850186944007874,-0.12546159327030182,-0.19968673586845398,0.13144207000732422,-0.033049531280994415,0.4476049542427063,-0.22718803584575653,-0.1699390858411789,0.39108332991600037,-0.19020746648311615,0.011590070091187954,-0.4628538489341736,0.06909746676683426,0.06273096054792404,-0.42996838688850403,0.24957887828350067,0.039102692157030106,0.0011233747936785221,-0.011864518746733665,-0.031009841710329056,0.11638487875461578,0.2334958165884018,-0.11501427739858627,-0.06604695320129395,0.2086179554462433,-0.005255140829831362,0.14179782569408417,0.02420869469642639,-0.09583819657564163,-0.012944469228386879,0.11143697053194046,0.09544946998357773,-0.14286141097545624,0.1429164707660675,0.7217639088630676,0.4883628189563751,-0.3430964946746826,-0.09677065908908844,-0.11633314192295074,0.06064164265990257,0.40927624702453613,-0.7609570622444153,1.0000320672988892,0.46048179268836975,0.014710081741213799,-0.2980094254016876,0.25634121894836426,-0.7419278025627136,0.06607317179441452,0.002404940314590931,0.020971395075321198,-0.005344327073544264,0.3506491184234619,0.0491122230887413,0.11787266284227371,-0.04687616974115372,-0.0641716718673706,-0.09295042604207993,-0.015046813525259495,0.03524649888277054,0.02721932902932167,-0.01579395681619644,-0.038478706032037735,-0.014337556436657906,0.1827847957611084,0.09858714789152145,0.29065823554992676,-0.10562002658843994,-0.09405815601348877,-0.06655726581811905,0.04198605567216873,-0.30650877952575684,-0.029180286452174187,-0.08763648569583893,0.18825167417526245,-0.2619667649269104,0.25355616211891174,0.1459406465291977,0.12445209175348282,0.058246105909347534,-0.07302553206682205,-0.16218718886375427,0.21539604663848877,-0.06831000000238419,-0.17696695029735565,-0.07930676639080048,0.12471285462379456,0.11375465244054794,-0.08154552429914474,-0.017829567193984985,-0.2570696175098419,0.21212339401245117,0.07571759074926376,-0.016398245468735695,-0.09595021605491638,0.20448638498783112,-0.0776672288775444,-0.01695919968187809,0.08717329800128937,-0.04426657781004906,-0.18564444780349731,0.20667093992233276,-0.3423939645290375,0.2564041316509247,0.35548362135887146,-0.2047172635793686,0.1786424070596695,-0.01574506051838398,0.25372514128685,-0.05205614119768143,0.1965416669845581,0.04406308755278587,0.00037374612293206155,0.08743905276060104,0.2444925755262375,0.0033027981407940388,-0.001953757368028164,0.026802092790603638,0.0054629151709377766,-0.24769140779972076,0.040064629167318344,-0.05033370852470398,0.03658394142985344,-0.04494870454072952,-0.2913512885570526,-0.12044113129377365,0.1403292417526245,-0.014351407065987587,-0.10111173242330551,-0.12887299060821533,-0.022787801921367645,-0.03283098712563515,-0.18140839040279388,0.047065556049346924,0.05257344990968704,0.31883156299591064,-0.124538354575634,-0.011499905027449131,-0.047458466142416,0.13582168519496918,0.1468878984451294,0.4502153992652893,0.08754633367061615,0.22528831660747528,0.08358629792928696,0.14820565283298492,0.02908748760819435,-0.15900704264640808,-0.2911069095134735,-0.0701482966542244,-0.0478786900639534,-0.17155325412750244,-0.09934575110673904,0.2532186806201935,0.03826720640063286,-0.17883898317813873,0.4895345866680145,0.032454997301101685,0.1262952983379364,-0.021654268726706505,-0.07688159495592117,-0.09297122806310654,-0.34972313046455383,-0.060918983072042465,0.34992334246635437,-0.13215316832065582,-0.01390361413359642,0.04878943786025047,0.007190159987658262,0.01813732646405697,0.20567747950553894,0.10925150662660599,-0.2623734474182129,-0.08513317257165909,-0.021307088434696198,0.03759881108999252,-0.1644783914089203,0.008998367935419083,0.08363891392946243,0.33422690629959106,-0.2656187415122986,0.14937065541744232,-0.18709132075309753,0.10660979151725769,0.06731292605400085,0.08131452649831772,-0.07863212376832962,0.08019659668207169,-0.207802414894104,0.12802983820438385,-0.021043047308921814,-0.07679028809070587,-0.13509368896484375,-0.0870877280831337,-0.3750549554824829,0.1799439936876297,0.06562444567680359,0.1825704127550125,-0.10622572153806686,-0.2656314969062805,0.014077297411859035,0.0391700305044651,0.014529148116707802,0.10877420008182526,-0.0821661427617073,0.06666422635316849,0.17849868535995483,0.038797810673713684,0.1849677562713623,-0.05611352622509003,0.029342127963900566,-0.3105834424495697,-0.09706957638263702,-0.14607515931129456,-0.008896536193788052,-0.029641589149832726,0.2673843204975128,-0.01788513921201229,-0.5721890926361084,-0.02606460079550743,0.2030600756406784,-0.2822819948196411,0.1608719825744629,0.21608301997184753,0.20536400377750397,-0.17208167910575867,0.16985493898391724,0.09418601542711258,-0.19590863585472107,0.1966262012720108,0.16064512729644775,0.35220932960510254,-0.018820924684405327,-0.25936418771743774,-0.14398351311683655,-0.003999635111540556,-0.5837897062301636,-0.2881086766719818,0.07715405523777008,0.20983219146728516,-0.35094451904296875,-0.04906684532761574,-0.0030621665064245462,0.034097328782081604,0.6068296432495117,0.16166943311691284,-0.2528258264064789,-0.14325205981731415,0.21344934403896332,-0.15098892152309418,-0.13842470943927765,0.16852469742298126,-0.040575623512268066,0.11813828349113464,0.029650360345840454,0.042613789439201355,0.07147525995969772,0.07466873526573181,-0.13599993288516998,-0.015871906653046608,0.30131012201309204,-0.1299617886543274,0.17193524539470673,-0.11607911437749863,-0.07336217164993286,0.0005021393881179392,0.282938688993454,-0.05455678701400757,0.06151814013719559,0.226190447807312,-0.1551593691110611,0.11098135262727737,0.07280147820711136,0.16552554070949554,-0.11521471291780472,-0.1285436898469925,-0.3614310920238495,-0.14500193297863007,0.025045251473784447,0.05098909139633179,-0.0001039303679135628,0.12392836064100266,0.1456407904624939,-0.1257033348083496,-0.19132781028747559,0.19544418156147003,0.10424632579088211,-0.3315138816833496,-0.20098118484020233,-0.27212437987327576,-0.026478920131921768,-0.18859975039958954,-0.07304608821868896,-0.0724996030330658,-0.005496043246239424,-0.21933317184448242,-0.08097947388887405,0.26214975118637085,0.2493608295917511,0.35843443870544434,-0.10079195350408554,-0.06722987443208694,-0.13729499280452728,0.22948680818080902,0.19602125883102417,0.11309181153774261,-0.0032716321293264627,-0.07643210887908936,-0.029211940243840218,0.19203104078769684,0.21536652743816376,-0.049032311886548996,-0.2588815987110138,-0.30625665187835693,-0.06589356064796448,-0.0746600404381752,-0.029683446511626244,0.11648375540971756,0.2723952829837799,-0.11668044328689575,0.050613388419151306,0.3476867377758026,-0.030693819746375084,-0.03981880098581314,-0.1150905042886734,-0.2688494920730591,0.13146229088306427,-0.1173781305551529,-0.0418865792453289,0.2021457850933075,-0.043226853013038635,0.12462309002876282,0.001930268364958465,-0.12106814980506897,-0.005971941631287336,0.053513266146183014,0.4807388186454773,-0.048426371067762375,0.07164672017097473,-0.20841534435749054,0.06464512646198273,-0.10554128885269165,-0.14453646540641785,-0.06030081585049629,0.041323501616716385,-0.21797142922878265,-0.16178341209888458,-0.18284931778907776,0.18127942085266113,0.07561749964952469,-0.14031840860843658,-0.17657352983951569,0.0626968964934349,0.10768674314022064,-0.7111338376998901,-0.0023112173657864332,-0.018078375607728958,-0.015514709055423737,-0.1380482017993927,0.07760273665189743,0.23417343199253082,-0.1545146405696869,-0.18823213875293732,-0.3169606924057007,-0.15545767545700073,0.044634658843278885,-0.30975425243377686,0.04087191820144653,0.11934187263250351,0.1417849063873291,0.0073936874978244305,0.07938123494386673,0.3134089708328247,0.04042353108525276,0.0920279398560524,-0.13311775028705597,0.03225759044289589,-0.06829072535037994,0.039149243384599686,0.016543716192245483,-0.036798764020204544,0.017053771764039993,0.11993870884180069,0.1446513533592224,-0.08543536067008972,-0.36721494793891907,-0.32280433177948,0.0912872925400734,-0.1325278878211975,-0.1312170773744583,-0.24513384699821472,-0.23377646505832672,0.10284626483917236,0.15289939939975739,-0.008007361553609371,-0.09876445680856705,0.1348576843738556,0.09155687689781189,0.012732183560729027,0.29144495725631714,-0.18482397496700287,0.0276921596378088,-0.42405763268470764,-0.19062663614749908,0.1046704351902008,-0.07088356465101242,0.10750529915094376,-0.05820208415389061,0.286273717880249,-0.36401650309562683,-0.04820767045021057,0.18946921825408936,-0.24339008331298828,-0.14739271998405457,-0.2141210436820984,-0.09373033791780472,-0.14191289246082306,-0.11322711408138275,-0.0034277942031621933,-0.10181158781051636,-0.18127746880054474,-0.23414400219917297,-0.13530057668685913,-0.011208971031010151,0.08053887635469437,-0.33467552065849304,-0.24170634150505066,0.49330687522888184,0.2068549394607544,-0.032179273664951324,-0.12279437482357025,-0.2675268054008484,0.036807429045438766,-0.14006763696670532,0.13061879575252533,0.10351794213056564,-0.11249888688325882,0.14880160987377167,0.1342979222536087,0.03882297873497009,-0.11553120613098145,-0.11438063532114029,0.07706867903470993,0.0008473463240079582,-0.31870827078819275,-0.15578928589820862,-0.12095071375370026,-0.022791463881731033,0.01611790433526039,-0.30216193199157715,-0.049447983503341675,0.30356478691101074,-0.11185462772846222,-0.13098470866680145,0.026348892599344254,0.08165527880191803,-0.01633666642010212,0.07703913003206253,-0.045893266797065735,0.11657517403364182,-0.2488459348678589,0.1437748223543167,-0.1209738478064537,0.047915611416101456,0.12732942402362823,0.19129890203475952,0.11441415548324585,-0.1964811533689499,-0.297904908657074,0.1621084362268448,0.20825977623462677,-0.23940026760101318,-0.08500567078590393,0.03547203913331032,0.24097153544425964,-0.14378762245178223,-0.06949324160814285,0.01641908660531044,-0.12923185527324677,0.016817612573504448,0.12257993221282959,-0.06208014488220215,0.09574054926633835,0.03834287449717522,-0.14852625131607056,-0.0725012719631195,0.045670218765735626,0.2277166098356247,0.20439580082893372,-0.114878810942173,-0.14515480399131775,-0.2831406593322754,0.4325627088546753,0.025743676349520683,-0.1463288813829422,0.024742498993873596,0.1845916509628296,0.056599099189043045,-0.02708698809146881,-0.20424409210681915,0.09241470694541931,0.2054489254951477,0.02614753134548664,0.008037757128477097,-0.03731479495763779,-0.4061514437198639,-0.017297901213169098,0.009795191697776318,0.02012566290795803,0.08091092854738235,-0.07518311589956284,-0.02170017547905445,-0.14487387239933014,-0.390872985124588,-0.10005615651607513,0.11965932697057724,-0.4696975648403168,0.4195113182067871,-0.011328368447721004,0.09707935154438019,0.019748523831367493,-0.12584762275218964,0.15605375170707703,-0.26308977603912354,0.14036104083061218,-0.16404658555984497,-0.0618927888572216,-0.023551877588033676,-0.24454008042812347,0.04480971395969391,0.0008642395259812474,-0.07654827833175659,-0.0035950292367488146,-0.039720986038446426,-0.020771943032741547,-0.11482556909322739,-0.00024355818459298462,0.31157776713371277,-0.09053478389978409,-0.15610040724277496,-0.08424627035856247,-0.05263663828372955,0.028524788096547127,-0.2734837532043457,-0.1532105803489685,-0.08171073347330093,-0.37174949049949646,-0.05231094732880592,-0.067865289747715,0.16093921661376953,0.01753554493188858,-0.15061664581298828,-0.2758050560951233,0.05045740678906441,0.006105922628194094,-0.03021620586514473,0.08312620967626572,0.16886229813098907,0.1351282298564911,-0.026118241250514984,0.027127930894494057,0.25078073143959045,-0.3268810510635376,-0.10189112275838852,-0.10988651216030121,-0.3770420551300049,0.0026146587915718555,0.2760753631591797,0.08018965274095535,-0.09580640494823456,-0.08651771396398544,-0.277340829372406,0.15312699973583221,-0.17639635503292084,-0.04508509114384651,-0.08767911791801453,0.16187980771064758,-0.025320885702967644,-0.11373881995677948,-0.2936265468597412,0.02915276028215885,0.026449104771018028,-0.029238233342766762,-0.0760740414261818,-0.11603815108537674,0.0873531699180603,-0.0497530922293663,0.06425503641366959,0.0672338679432869,0.031384386122226715,-0.020933493971824646,0.09437216818332672,-0.03592687472701073,-0.0006769963074475527,0.045967090874910355,0.11562629789113998,-0.07087577879428864,0.11297322809696198,-0.17079855501651764,0.03220289573073387,0.2941887676715851,-0.17302197217941284,0.34151050448417664,-0.23635835945606232,0.13704584538936615,0.05939704179763794,0.42203134298324585,0.04269755631685257,-0.03895367681980133,0.007347156293690205,-0.0021153856068849564,0.06824325025081635,0.05867592990398407,0.09270747005939484,0.10612642019987106,0.08939027786254883,0.11933489143848419,-0.13508713245391846,-0.2682700455188751,-0.37241488695144653,-0.25568050146102905,-0.009289950132369995,-0.06814982742071152,-0.2844567596912384,-0.08634822070598602,-0.2108524888753891,0.013154617510735989,-0.08442609012126923,-0.1271146535873413,0.15645809471607208,0.03961982578039169,0.17282606661319733,0.18713782727718353,0.1399977207183838,0.09044714272022247,-0.15673306584358215,-0.14387951791286469,-0.06896474212408066,0.01633952558040619,-0.3455190360546112,0.0738079845905304,0.18697607517242432,-0.05910110846161842,0.054861653596162796,0.1954009234905243,-0.16514819860458374,-0.0857790932059288,0.2907077968120575,0.11175377666950226,0.009463818743824959,-0.1458064615726471,0.3252008557319641,-0.1983950287103653,0.30458396673202515,-0.3451981544494629,-0.4197952151298523,0.1355454921722412,-0.4671058654785156,0.1864258199930191,-0.029718657955527306,-0.48691779375076294,0.08638262748718262,-0.04268665611743927,-0.49585169553756714,0.06924553960561752,-0.018200457096099854,0.3247911334037781,0.20169176161289215,-0.1496092826128006,0.05858718976378441,-0.052066393196582794,0.15764600038528442,-0.14975287020206451,-0.030482953414320946,-0.023354968056082726,0.0947427824139595,0.003043775912374258,-0.048597659915685654,0.09470681101083755,0.007496471982449293,0.053153734654188156,-0.027930021286010742,-0.026721689850091934,-0.016701240092515945,0.0838957130908966,0.13418833911418915,0.2151414006948471,-0.654693603515625,-0.09922870993614197,0.017987335100769997,-0.35790297389030457,0.022487837821245193,0.13569791615009308,0.08347227424383163,0.07346183806657791,-0.1208663359284401,-0.32001227140426636,0.16187193989753723,0.05613647401332855,0.3624802529811859,-0.015064137056469917,-0.021770084276795387,-0.35939860343933105,-0.041893865913152695,0.05689701437950134,-0.06685399264097214,0.13827408850193024,-0.03149060904979706,-1.1585888862609863,-0.10157445818185806,-0.019063126295804977,-0.31668156385421753,-0.04640992730855942,0.1011442244052887,-0.02853529155254364,0.19812195003032684,-0.16948522627353668,0.01461981050670147,0.040695104748010635,0.0906258225440979,0.13891808688640594,-0.11154086142778397,-0.09486836940050125,-0.18076170980930328,0.04838065803050995,-0.03426780551671982,-0.05549740418791771,-0.22488552331924438,-0.012960822321474552,0.0860203430056572,-0.07794146239757538,0.02724103257060051,0.43057167530059814,0.05116167664527893,0.08592700958251953,-0.29403194785118103,0.002967575564980507,0.03996438905596733,-0.1497591733932495,-0.15271998941898346,0.038642652332782745,-0.0007174334023147821,-0.09642032533884048,-0.11531547456979752,0.298054575920105,0.16841335594654083,0.0445430763065815,0.3286363482475281,-0.10912319272756577,-0.011787885800004005,-0.33291196823120117,0.1706099957227707,-0.06374375522136688,-0.1915416419506073,-0.00048518608673475683,-0.031371600925922394,-0.7086043357849121,0.032949790358543396,0.12716518342494965,-0.17773766815662384,-0.06520477682352066,0.20676198601722717,-0.2643827795982361,0.23214910924434662,-0.031384874135255814,0.13041992485523224,0.035501256585121155,-0.001823931117542088,-0.03712166100740433,-0.12204239517450333,-0.10614389926195145,-0.09914527088403702,0.04850299656391144,-0.02201543189585209,0.21461279690265656,0.10070136189460754,0.06685372442007065,-0.021270539611577988,0.023860864341259003,-0.2155798375606537,0.17675751447677612,-0.043574463576078415,-0.21740995347499847,0.11195626854896545,-0.32657378911972046,0.11161179840564728,-0.027069220319390297,-0.4147990643978119,0.05936545133590698,-0.26696324348449707,-0.05756926164031029,-0.019440487027168274,0.25248822569847107,-0.02345929481089115,-0.1230025365948677,0.34932124614715576,-0.32783496379852295,0.026035523042082787,-0.41560477018356323,0.11867117881774902,-0.15481451153755188,-0.2558727264404297,-0.25258779525756836,-0.023073185235261917,-0.022755781188607216,0.04425276815891266,0.060740552842617035,0.025304261595010757,0.2647009491920471,0.21348837018013,0.5113678574562073,0.3044072389602661,-0.1737288385629654,-0.039640914648771286,0.1574787050485611,0.09929919987916946,0.09702294319868088,-0.04180774465203285,-0.1396373063325882,-0.11955150216817856,-0.21553581953048706,0.030755966901779175,0.3028663098812103,-0.2960468828678131,0.008316020481288433,-0.028466930612921715,0.19726306200027466,0.07490929961204529,0.5596650242805481,0.018259551376104355,-0.10332152247428894,0.027314772829413414,0.47488489747047424,0.1596742570400238,0.41260436177253723,-0.33911389112472534,0.14158953726291656,0.2230784147977829,0.15373945236206055,0.2135445773601532,-0.005973487626761198,-0.19156840443611145,-0.18143971264362335,-1.1104003190994263,0.18005038797855377,0.07305929064750671,0.5491364598274231,0.20839668810367584,-0.06418247520923615,-0.13023309409618378,-0.00231735548004508,0.09227331727743149,0.2202831208705902,-0.43066954612731934,0.06730076670646667,-0.13943322002887726,0.14231906831264496,0.1375417858362198,-0.06099476292729378,0.020215867087244987,-0.19123321771621704,-0.09530921280384064,0.03787315636873245,-0.1053168773651123,-0.2246459275484085,-0.19392554461956024,-0.09870243817567825,-0.014053931459784508,-0.22915281355381012,-0.08090724796056747,-0.027617573738098145,0.12153118848800659,-0.0329793319106102,-0.11355148255825043,0.05154150351881981,-0.17867296934127808,0.04194338992238045,0.11287693679332733,0.17087547481060028,-0.3899921774864197,0.031893037259578705,0.07011167705059052,0.17304645478725433,0.1943131983280182,0.1698552817106247,0.008763600140810013,-0.03894969820976257,0.13274455070495605,-0.1153288409113884,0.08116814494132996,-0.0714166983962059,0.029396655037999153,-0.02596680074930191,-0.016327671706676483,-0.43205755949020386,0.10568895190954208,-0.11543308198451996,0.045938294380903244,-0.27571138739585876,0.09511744976043701,0.048895422369241714,-0.373723566532135,-0.01679665967822075,0.038194119930267334,-0.22021278738975525,0.03551105409860611,-0.2764412760734558,-0.026852598413825035,-0.12933865189552307,-0.0313071571290493,-0.13061073422431946,-0.14067822694778442,-0.3333706259727478,-0.2531295120716095,-0.08201141655445099,-0.053682345896959305,-0.13727518916130066,-0.052513156086206436,0.033410731703042984,0.6014356017112732,-0.12457507103681564,-0.021260779350996017,-0.2621532678604126,0.17188195884227753,-0.29684484004974365,-0.09593023359775543,-0.05116260051727295,0.032508403062820435,-0.18814216554164886,0.0559394545853138,-0.17310351133346558,0.26545795798301697,-0.018595999106764793,-0.14691124856472015,0.08017532527446747,0.11934792995452881,-0.03240998089313507,0.3602418303489685,-0.12474873661994934,0.2276744544506073,-0.4613141417503357,-0.07357574254274368,-0.1111924797296524,-0.07457105815410614,0.34959283471107483,0.29118049144744873,0.20620809495449066,-0.1980687975883484,0.19737987220287323,-0.05750143155455589,-0.37909626960754395,-0.1324888914823532,-0.13836868107318878,-0.10049348324537277,-0.5247231721878052,-0.10692097246646881,0.07549454271793365,0.08907929807901382,0.1334877908229828,0.19263476133346558,0.08727793395519257,0.04400334879755974,0.21611382067203522,0.18937985599040985,0.28981533646583557,-0.1499413400888443,0.2288821041584015,0.10481508821249008,-0.15592198073863983,-0.33627045154571533,-0.012739580124616623,0.0726936087012291,-0.4513314664363861,0.2605966031551361,0.05862472951412201,0.09748692065477371,0.12060347199440002,-0.1106371060013771,0.1534150391817093,-0.08270767331123352,-0.13336427509784698,-0.1944533735513687,-0.09936437010765076,-0.261650949716568,-0.1684378981590271,0.0030873522628098726,-0.0790877714753151,0.5625717043876648,0.08071698993444443,-0.22786299884319305,-0.6382957696914673,0.03450464829802513,-0.17909295856952667,0.12152323126792908,-0.30003324151039124,-0.06245029717683792,-0.8167893290519714,-0.05716371163725853,-0.02751041390001774,0.14386582374572754,0.03477424383163452,-0.13933752477169037,-0.05198637768626213,-0.09856679290533066,-0.03913011774420738,-0.12167291343212128,-0.1041826605796814,0.02315429411828518,-0.13958640396595,0.1782558709383011,0.07038751244544983,-0.3420366644859314,0.17189757525920868,0.008770146407186985,0.014995137229561806,-0.001252564019523561,0.01085110753774643,0.22278393805027008,0.14733374118804932,0.008768902160227299,0.10573673248291016,-0.03762476518750191,0.10063867270946503,-0.2104509323835373,-0.19699782133102417,-0.21093516051769257,-0.3962526321411133,-0.07898087054491043,-0.17404784262180328,0.19874458014965057,-0.09360520541667938,0.15057307481765747,0.08559688180685043,-0.192832350730896,0.1687721610069275,-0.01900045946240425,0.07212565839290619,0.10355686396360397,0.439860075712204,-0.018251411616802216,-0.19486068189144135,0.07993488013744354,0.3947809636592865,-0.1477232128381729,0.35746023058891296,0.05513135343790054,-0.07414911687374115,-0.17050209641456604,-0.12404605746269226,-0.257097989320755,0.06271465867757797,0.2926059067249298,-0.001327503938227892,0.09369249641895294,0.042140889912843704,-0.11501817405223846,0.04010583087801933,-0.22600430250167847,0.01953544095158577,0.027050094678997993,-0.07569342106580734,-0.08351674675941467,0.12395669519901276,-0.141279399394989,0.08718156069517136,-0.11809974908828735,0.013218073174357414,-0.18310463428497314,-0.23425009846687317,0.07044269144535065,-0.04327290877699852,-0.10780559480190277,-0.1729000210762024,0.10087612271308899,-0.48390403389930725,0.18226292729377747,-0.13573355972766876,-0.1220765933394432,0.046935029327869415,-0.27788448333740234,0.21527303755283356,0.4120967984199524,0.09799396246671677,0.3843824863433838,-0.24876175820827484,0.01232326589524746,-0.36336493492126465,0.11007282137870789,-0.04842302203178406,-0.019251437857747078,0.06677543371915817,0.040120095014572144,0.1254802942276001,0.06694823503494263,-0.013638006523251534,-0.10131832957267761,0.03654205799102783,0.010656372644007206,-0.20185109972953796,-0.2432907521724701,0.17231543362140656,0.3140413463115692,-0.03836417198181152,-0.06029735133051872,0.4665689170360565,0.26320555806159973,0.5752286314964294,-0.6847657561302185,-0.47208359837532043,0.16151724755764008,0.22261932492256165,0.10060998797416687,0.2635763883590698,0.3906574249267578,-0.21585987508296967,0.3177802264690399,0.178402841091156,-0.2941860258579254,0.248046413064003,-0.5619904398918152,-0.07219701260328293,-0.07692748308181763,0.09736333787441254,-0.20980039238929749,0.04076003283262253,0.35139310359954834,-0.12362682819366455,-0.3329634964466095,-0.33377259969711304,-0.042401157319545746,-0.25054940581321716,-0.10790631920099258,0.2492211014032364,0.1342628449201584,0.22304338216781616,-0.16927167773246765,0.002741030417382717,-0.10703007131814957,0.25669869780540466,-0.5230870842933655,-0.06723060458898544,0.39199188351631165,0.07349509745836258,-0.16214865446090698,-0.07790342718362808,-0.11850852519273758,-0.11539456248283386,0.08831647038459778,0.518584132194519,0.31617748737335205,0.31204357743263245,-0.06547532230615616,0.17986997961997986,0.16294623911380768,-0.02782926708459854,-0.21434134244918823,-0.03055821731686592,0.010563968680799007,-0.006955687887966633,-0.014422968961298466,0.11805729568004608,0.10885807871818542,-0.2830137014389038,-0.02378799393773079,0.3591019809246063,0.11466634273529053,-0.0720558911561966,0.04647926241159439,-0.18050441145896912,-0.03618071228265762,-0.31335604190826416,0.2672232389450073,0.13701848685741425,0.23056964576244354,0.18662932515144348,-0.16872894763946533,-0.2508045434951782,-0.23485085368156433,0.14923541247844696,-0.16377560794353485,0.11616304516792297,0.019517946988344193,0.2228897213935852,-0.2776447534561157,0.0958159938454628,-0.144127756357193,-0.15439146757125854,0.23601411283016205,-0.0251635555177927,0.03395107761025429,-0.013961471617221832,-0.0915253609418869,-0.051718972623348236,-0.06839543581008911,0.20346137881278992,-0.02671544812619686,-0.19248627126216888,0.006367029622197151,-0.04184779152274132,-0.212008535861969,-0.05399472266435623,0.5780406594276428,0.25182047486305237,0.038661058992147446,-0.1249489039182663,0.10583561658859253,0.40838661789894104,-0.09723641723394394,-0.01574203558266163,0.083951935172081,-0.15480192005634308,0.25661006569862366,0.1416243463754654,0.1725420504808426,-0.03244742006063461,0.09805695712566376,-0.24825172126293182,-0.036957792937755585,-0.0322333425283432,0.36858677864074707,0.030969791114330292,-0.20405182242393494,0.1809719055891037,0.07726960629224777,-0.03266526386141777,-0.024399200454354286,0.005380106158554554,0.14365039765834808,0.2558668255805969,-0.08051491528749466,-0.07223322987556458,-0.04546971619129181,0.17190895974636078,0.22623682022094727,0.02678487077355385,0.2402762919664383,0.15736369788646698,-0.09286104887723923,-0.13093781471252441,0.21912729740142822,0.2829156219959259,-0.017731741070747375,-0.07627728581428528,0.01994379609823227,-0.19364678859710693,-0.3095211684703827,0.03479433059692383,0.11279597133398056,-0.06305675208568573,-0.0728551596403122,-0.049251578748226166,0.12612850964069366,0.13419775664806366,-0.12021242827177048,-0.09781341999769211,0.09227584302425385,-0.040196843445301056,-0.09336186945438385,-0.19624626636505127,-0.1134062334895134,0.1799706518650055,0.11148369312286377,-0.0211899746209383,0.06405455619096756,0.04120690003037453,-0.0338832288980484,0.1292663812637329,0.12210871279239655,-0.2194453477859497,-0.09801369160413742,-0.33517348766326904,0.09326083958148956,-0.019056135788559914,-0.029618768021464348,0.3988397717475891,-0.10203142464160919,0.10463952273130417,-0.062016140669584274,-0.11658534407615662,0.041937991976737976,-0.041011545807123184,0.2522290050983429,-0.35682761669158936,-0.10976014286279678,0.045669328421354294,0.0697837546467781,-0.21893583238124847,-0.14604006707668304,-0.033796027302742004,0.0007651890045963228,-0.24956314265727997,-0.09790296107530594,-0.05333784595131874,0.16412870585918427,0.13719379901885986,-0.08846397697925568,0.16402755677700043,0.0014506055740639567,-0.4192516803741455,0.013764720410108566,-0.23883195221424103,-0.23682641983032227,-0.034270089119672775,0.09076450765132904,0.12328474223613739,0.050346262753009796,0.2971998453140259,-0.07195175439119339,-0.11975768208503723,-0.05764077231287956,-0.20926639437675476,0.004892905242741108,0.004322830121964216,-0.21608993411064148,0.1951044201850891,0.2048729509115219,-0.13129860162734985,0.03340575471520424,-0.11520420759916306,0.04346645623445511,0.08725029230117798,-0.057676736265420914,-0.020002389326691628,0.06897484511137009,-0.5461645126342773,0.17468637228012085,-0.05294089764356613,-0.17230066657066345,-0.007988573051989079,0.2704088091850281,-0.11949504911899567,0.42076772451400757,0.022832784801721573,0.16582800447940826,-0.051657725125551224,-0.14436577260494232,-0.151987224817276,0.11532511562108994,0.16444416344165802,0.08122897893190384,-0.23176586627960205,-0.12122607976198196,0.012858732603490353,-0.13559609651565552,0.1855016052722931,0.007765186484903097,0.13580629229545593,0.12670734524726868,-0.12085874378681183,-0.2691000998020172,0.19719906151294708,0.20720672607421875,0.19092251360416412,0.136616051197052,-0.3261544704437256,-0.032931286841630936,0.04543878138065338,0.1991099864244461,-0.11627465486526489,0.19786641001701355,-0.17460651695728302,0.18529260158538818,-0.07521489262580872,0.027450384572148323,-0.22523804008960724,-0.16590632498264313,0.3512341380119324,0.061430033296346664,-0.015494976192712784,0.13356150686740875,-0.14910201728343964,0.18990808725357056,0.3670075535774231,0.10147503018379211,-0.13653691112995148,0.05346944183111191,-0.10884597152471542,0.13673220574855804,0.10164455324411392,-0.07134504616260529,-0.034955594688653946,-0.08611360937356949,-0.0606057234108448,-0.020622001960873604,-0.16500699520111084,0.007544014137238264,0.014857186935842037,-0.06575389206409454,-0.162311851978302,-0.04705401137471199,-0.08925976604223251,0.01023756992071867,0.13566231727600098,-0.02125592716038227,0.11652018129825592,-0.026526907458901405,0.025525487959384918,0.20582343637943268,0.03526242822408676,0.333491712808609,-0.01522795855998993,0.05423879623413086,0.08577483892440796,-0.2201339304447174,-0.03416428342461586,0.04175086319446564,-0.16775469481945038,0.02008182369172573,-0.08068656176328659,-0.1416960209608078,0.06677791476249695,-0.05536968633532524,-0.2895621955394745,0.0519416518509388,0.018592314794659615,-0.1049574464559555,0.1263548880815506,0.1701323688030243,-0.02415948547422886,-0.08152048289775848,0.027901150286197662,0.31955209374427795,0.08450763672590256,0.12316112965345383,-0.2063964456319809,0.0774744376540184,-0.06163943558931351,-0.23519907891750336,0.10055845230817795,0.038192376494407654,0.2675289213657379,0.07055105268955231,-0.10388679057359695,-0.03109920211136341,0.05438464507460594,-0.08504442125558853,0.17026987671852112,0.06996128708124161,-0.13385197520256042,-0.18402189016342163,-0.051118820905685425,-0.02191152796149254,0.10033225268125534,0.04884358495473862,-0.27691173553466797,0.08559630811214447,0.024791479110717773,-0.3468141257762909,0.09854982048273087,-0.15419308841228485,0.029489988461136818,0.02696971595287323,0.0846097320318222,-0.08740359544754028,-0.036090295761823654,0.038071244955062866,0.28797388076782227,-0.01605156995356083,-0.07555104792118073,-0.26454484462738037,-0.0018786154687404633,-0.1159282997250557,-0.039905350655317307,-0.22084484994411469,-0.05038730427622795,-0.07224002480506897,0.22349004447460175,-0.03581100329756737,0.0005449590971693397,-0.034584563225507736,0.02493097074329853,-0.1192060261964798,0.12078563123941422,-0.27773383259773254,0.09443066269159317,-0.18942518532276154,-0.10631605982780457,-0.14609728753566742,0.14955922961235046,-0.0859745442867279,-0.10261639207601547,0.04133453965187073,0.15308238565921783,0.15480810403823853,-0.08368702232837677,-0.15680213272571564,-0.2693343460559845,-0.14455951750278473,-0.056530121713876724,-0.15604493021965027,0.12978236377239227,0.1772385537624359,0.22899973392486572,0.04232341796159744,0.06433874368667603,-0.09590652585029602,0.015388150699436665,-0.12714679539203644,0.053613241761922836,0.13889722526073456,0.013556462712585926,-0.29948002099990845,-0.3183806240558624,0.04925386235117912,0.17772012948989868,-0.009297609329223633,0.06275401264429092,-0.3403869569301605,-0.03257051482796669,-0.05826510488986969,0.08773312717676163,-0.2871008515357971,0.01739886961877346,-0.09016315639019012,0.17652423679828644,0.15678885579109192,0.0027999854646623135,0.14429448544979095,-0.06765736639499664,-0.042572297155857086,0.13281095027923584,-0.06091918423771858,0.14294560253620148,0.1674543023109436,-0.009380600415170193,0.3153848946094513,0.0824938490986824,-0.1286206841468811,-0.04170062392950058,-0.021930690854787827,0.000889751419890672,-0.05152200162410736,0.06969761848449707,-0.10554949939250946,0.007388151716440916,0.010364658199250698,0.18033947050571442,-0.05982176586985588,0.11829725652933121,-0.10244009643793106,0.24573439359664917,-0.1883031129837036,0.11713317781686783,0.32687926292419434,-0.10168176144361496,-0.05808043107390404,-0.06883511692285538,-0.025616466999053955,0.03910404443740845,0.06981733441352844,-0.025847509503364563,-0.011520485393702984,-0.21236246824264526,-0.145338773727417,0.05245062708854675,0.012315364554524422,-0.3005583882331848,0.028395920991897583,0.2063142955303192,0.056225065141916275,0.08119017630815506,0.2930094003677368,0.05058314651250839,-0.04657236114144325,0.08420754969120026,-0.10297299176454544,0.024688245728611946,0.2259475439786911,0.08455207943916321,-0.0267765112221241,0.181867316365242,0.046617332845926285,-0.024602102115750313,0.03773317113518715,-0.07871340215206146,-0.1160452589392662,-0.0692206621170044,-0.13466320931911469,0.012673917226493359,-0.12820635735988617,-0.07473409175872803,0.07480888813734055,0.1884547919034958,-0.11651614308357239,0.1003694236278534,-0.0025814855471253395,0.19988885521888733,-0.018405841663479805,-0.07434428483247757,0.2921622395515442,-0.05538192763924599,0.15760014951229095,0.281658798456192,-0.01014653593301773,0.13443787395954132,0.012576622888445854,0.09323368966579437,-0.1816306710243225,0.08884268254041672,0.07798855006694794,-0.13950347900390625,-0.15783366560935974,0.10549549013376236,0.10971064865589142,-0.3152686059474945,0.029795370995998383,-0.050247922539711,-0.005429304204881191,-0.044743239879608154,0.006226262077689171,0.2104494720697403,0.1315578818321228,0.09766724705696106,0.42560118436813354,-0.04082323610782623,-0.0541389100253582,-0.23071160912513733,-0.08146960288286209,-0.06582093238830566,-0.09596139192581177,-0.05157984793186188,-0.14799587428569794,-0.15698575973510742,0.032015055418014526,0.25179558992385864,-0.12599769234657288,0.09138443320989609,-0.13064786791801453,0.2537885308265686,-0.004265801981091499,0.1983671337366104,0.16680827736854553,-0.031082114204764366,0.06068994104862213,-0.18066948652267456,0.06542602181434631,0.00729092862457037,0.021010270342230797,0.22148236632347107,0.06184270232915878,-0.1860363930463791,-0.10131312906742096,-0.017959503456950188,0.1395491510629654,0.09742823243141174,-0.027288630604743958,-0.21595460176467896,-0.052097175270318985,-0.09785614162683487,-0.4259789288043976,0.03235381469130516,0.08507642149925232,-0.07842079550027847,-0.1434289813041687,-0.03509432077407837,-0.15864574909210205,-0.17593897879123688,-0.10721217095851898,-0.0006370152696035802,0.10235680639743805,0.11951181292533875,-0.018765682354569435,0.09497959166765213,0.14935937523841858,-0.05133276805281639,-0.22600364685058594,0.04823756963014603,-0.013810480013489723,-0.03927639499306679,0.00288052367977798,0.01815943419933319,-0.23130573332309723,-0.10562271624803543,0.17553144693374634,0.10613810271024704,0.12887689471244812,-0.22169621288776398,-0.06106282025575638,-0.0693615972995758,0.2246309369802475,0.013648677617311478,0.047994211316108704,0.024312825873494148,-0.07204490900039673,-0.0731767788529396,-0.16694246232509613,-0.16259361803531647,-0.22445760667324066,-0.37332582473754883,-0.1209346279501915,-0.1635013222694397,0.15835407376289368,0.056001730263233185,0.2895455062389374,-0.10375992953777313,0.08667884021997452,0.13399522006511688,-0.09569372236728668,-0.0034781447611749172,0.010347848758101463,0.09497534483671188,-0.026464130729436874,0.07557547092437744,-0.18717031180858612,-0.20105215907096863,-0.13256505131721497,0.04250894486904144,0.19322998821735382,0.14947259426116943,0.026439698413014412,-0.07424915581941605,0.10686865448951721,0.04484402760863304,-0.11444591730833054,-0.2863672077655792,-0.01950697973370552,-0.15643632411956787,-0.07528689503669739,0.2678256928920746,-0.08744081854820251,-0.006328229326754808,0.2428857386112213,-0.06544401496648788,-0.033218707889318466,-0.2234693318605423,-0.03634103387594223,-0.02230590395629406,0.41410380601882935,0.033073846250772476,-0.01856776513159275,0.1837053745985031,0.02296103723347187,-0.05643898621201515,0.046734560281038284,0.03871465101838112,0.02084272727370262,0.12155375629663467,0.06998287886381149,0.07294964045286179,-0.10657709091901779,0.0549360066652298,-0.1979825794696808,0.02712314948439598,0.003223632462322712,-0.04553879424929619,-0.01181970164179802,-0.06759525090456009,0.02017265185713768,0.07500029355287552,0.013254616409540176,-0.15911653637886047,0.06140977516770363,0.03921522572636604,0.046939361840486526,0.15843695402145386,-0.12373773008584976,-0.11212854832410812,0.10995083302259445,-0.0703059732913971,0.006163622718304396,-0.029942253604531288,-0.007263634819537401,-0.06471910327672958,-0.09313024580478668,0.010821073316037655,-0.07030152529478073,-0.07058755308389664,-0.03698595613241196,0.13374188542366028,-0.10845017433166504,0.0056038228794932365,-0.1711083948612213,0.03415144979953766,0.11677253991365433,-0.05131391063332558,-0.12948952615261078,-0.05041029304265976,-0.040883973240852356,-0.08571543544530869,0.11411704868078232,-0.01499396376311779,-0.03407474234700203,-0.15901245176792145,-0.2531224489212036,-0.2193942815065384,-0.20399761199951172,-0.12933677434921265,-0.08054691553115845,0.04632008820772171,0.05090540647506714,0.39710015058517456,-0.031232750043272972,-0.012010900303721428,0.10305462032556534,-0.026503752917051315,0.027141554281115532,0.01958348974585533,-0.03885790333151817,-0.3489072322845459,-0.0119705181568861,0.14323943853378296,0.047430478036403656,-0.10500188171863556,-0.015588999725878239,-0.16039705276489258,0.028392506763339043,0.16837599873542786,0.07619589567184448,0.22878682613372803,-0.10246070474386215,0.010593445971608162,-0.28569987416267395,0.07355889678001404,0.026347892358899117,-0.08466386795043945,-0.12926694750785828,0.08691437542438507,0.256011426448822,0.009679896757006645,0.0549841932952404,-0.22598178684711456,-0.033939018845558167,0.19133488833904266,0.2166239470243454,0.09059219807386398,0.10019063204526901,0.08548205345869064,0.07358688861131668,0.15833507478237152,0.2120208591222763,0.06465758383274078,0.5148047804832458,0.19945625960826874,-0.08157365769147873,0.04767974093556404,-0.07135708630084991,0.04393240436911583,-0.16730020940303802,-0.32878774404525757,0.022318998351693153,-0.0018571509281173348,0.2200014889240265,0.1100960522890091,0.192576602101326,-0.23679372668266296,-0.11125645786523819,-0.18268021941184998,-0.20670896768569946,-0.11803457140922546,0.6133547425270081,0.575437068939209,-0.04902423918247223,-0.49605897068977356,-0.884475588798523,0.01972244307398796,0.17473064363002777,-0.21513324975967407,-0.37591251730918884,-0.2226642370223999,-0.386923223733902,-0.10057426244020462,0.054019585251808167,-0.3823378086090088,-0.02416231296956539,0.1624835729598999,0.055153556168079376,0.13179126381874084,-0.003702427027747035,-0.023325640708208084,-0.019188908860087395,0.13552401959896088,-0.22051270306110382,-0.018246980383992195,0.06270038336515427,-0.23683112859725952,0.02027294598519802,-0.03155830502510071,0.03532589599490166,0.08452967554330826,0.31550225615501404,-0.029544420540332794,-0.02822222374379635,0.14669308066368103,0.028514426201581955,0.021705936640501022,-0.011518887244164944,0.09168589860200882,-0.03333519771695137,-0.0717988908290863,-0.04664728417992592,0.031717948615550995,-0.05298938602209091,0.0236209649592638,-0.010353888384997845,-0.08189348876476288,-0.1702084243297577,0.03791021555662155,0.43049895763397217,-0.18173560500144958,0.08794661611318588,-0.04514138400554657,0.01599324680864811,-0.07311076670885086,0.058818381279706955,-0.009031943045556545,-0.08025060594081879,-0.025592904537916183,-0.19328708946704865,0.020800791680812836,0.13874398171901703,-0.006309957709163427,-0.20181310176849365,-0.03324081748723984,-0.11659268289804459,0.05103806406259537,0.03791400045156479,0.03344869986176491,-0.04300946369767189,0.2900548279285431,0.16444842517375946,0.1957375407218933,-0.008882422931492329,0.32136404514312744,0.04114949330687523,-0.12258245050907135,-0.12070157378911972,0.18922509253025055,0.1380404829978943,0.15768608450889587,